svm_type c_svc
kernel_type rbf
gamma 0.0025
nr_class 10
total_sv 699
rho -0.378215 -0.274735 -0.294194 0.0930894 0.0597841 -0.15459 -0.127065 0.155885 0.0405132 1.74028 0.639048 0.24588 0.561131 0.0371912 0.847316 0.390604 0.35887 -0.324696 0.0333414 0.600616 -0.261809 -0.944501 0.436641 0.0466145 0.131906 0.24026 -0.169904 -0.0978955 0.439733 -0.0188576 0.119661 -0.29379 0.0850669 0.0213045 0.563842 -0.56716 -0.296209 0.142345 -0.288436 -0.0503157 0.944228 0.304522 0.222909 0.17502 -0.278073
label -17 -16 -15 -14 -13 -12 -11 -10 -9 -8
probA -4.26974 -4.42406 -4.45795 -4.17072 -4.46232 -4.38461 -4.47574 -4.50189 -4.22221 -3.75442 -4.39206 -4.25596 -4.3689 -4.16791 -3.397 -4.40503 -4.144 -4.00183 -4.05359 -4.00271 -3.99132 -4.20552 -4.20046 -3.99571 -4.4355 -4.61826 -4.33395 -4.72039 -4.60921 -4.24786 -4.51511 -4.38156 -4.46935 -4.5119 -4.34435 -4.57457 -4.45063 -4.30533 -4.388 -4.27218 -4.60153 -4.34436 -4.50622 -4.38828 -4.53322
probB 0.215022 0.211785 0.0711925 0.168041 -0.0186983 0.0699937 0.264742 0.123604 0.144613 -0.0242457 -0.0178941 -0.155135 -0.102688 -0.130281 0.0362061 0.0278054 -0.477677 -0.251683 -0.223143 -0.259413 -0.255939 0.086738 -0.206273 -0.290654 -0.202245 -0.0669291 -0.144423 0.226066 -0.0220372 -0.202862 0.112262 0.0122255 0.179588 -0.0688036 -0.108265 -0.0128389 0.196514 -0.154497 -0.0608126 0.184919 0.0608081 -0.0630692 -0.11098 -0.303166 0.0746288
nr_sv 46 56 75 82 62 87 70 85 79 57
SV
0 0 0.3540120173822637 0 0 0 0 0 0 0:1 1:1 2:1 3:1 4:1 5:1 6:1 7:1 8:1 9:1 10:1 11:1 12:1 13:1 14:1 15:1 16:1 17:1 18:1 19:1 20:1 21:1 22:1 23:1 24:1 25:1 26:1 27:1 28:1 29:1 30:1 31:1 32:1 33:1 34:1 35:1 36:1 37:1 38:1 39:1 40:1 41:1 42:1 43:1 44:1 45:1 46:1 47:1 48:1 49:1 50:1 51:1 52:1 53:1 54:1 55:1 56:1 57:1 58:1 59:1 60:1 61:1 62:1 63:1 64:1 65:1 66:1 67:1 68:1 69:1 70:1 71:0 72:0 73:0 74:1 75:1 76:1 77:1 78:1 79:1 80:1 81:1 82:1 83:1 84:1 85:1 86:1 87:1 88:1 89:0 90:0 91:0 92:0 93:0 94:0 95:1 96:1 97:1 98:1 99:1 100:1 101:1 102:1 103:1 104:1 105:1 106:1 107:0 108:0 109:0 110:0 111:0 112:0 113:0 114:0 115:0 116:1 117:1 118:1 119:1 120:1 121:1 122:1 123:1 124:1 125:1 126:1 127:0 128:0 129:1 130:1 131:1 132:1 133:1 134:0 135:0 136:0 137:1 138:1 139:1 140:1 141:1 142:1 143:1 144:1 145:1 146:0 147:0 148:1 149:1 150:1 151:1 152:1 153:1 154:1 155:0 156:0 157:1 158:1 159:1 160:1 161:1 162:1 163:1 164:1 165:0 166:0 167:0 168:1 169:1 170:1 171:1 172:1 173:1 174:1 175:0 176:0 177:1 178:1 179:1 180:1 181:1 182:1 183:1 184:1 185:0 186:0 187:1 188:1 189:1 190:1 191:1 192:1 193:1 194:1 195:0 196:0 197:1 198:1 199:1 200:1 201:1 202:1 203:1 204:1 205:0 206:0 207:1 208:1 209:1 210:1 211:1 212:1 213:1 214:0 215:0 216:1 217:1 218:1 219:1 220:1 221:1 222:1 223:1 224:0 225:0 226:1 227:1 228:1 229:1 230:1 231:1 232:1 233:1 234:0 235:0 236:1 237:1 238:1 239:1 240:1 241:1 242:1 243:1 244:0 245:0 246:1 247:1 248:1 249:1 250:1 251:1 252:1 253:0 254:0 255:0 256:1 257:1 258:1 259:1 260:1 261:1 262:1 263:1 264:0 265:0 266:1 267:1 268:1 269:1 270:1 271:1 272:1 273:0 274:0 275:1 276:1 277:1 278:1 279:1 280:1 281:1 282:1 283:1 284:0 285:0 286:1 287:1 288:1 289:1 290:1 291:1 292:0 293:0 294:1 295:1 296:1 297:1 298:1 299:1 300:1 301:1 302:1 303:1 304:0 305:0 306:0 307:1 308:1 309:1 310:1 311:0 312:0 313:0 314:1 315:1 316:1 317:1 318:1 319:1 320:1 321:1 322:1 323:1 324:1 325:0 326:0 327:0 328:0 329:0 330:0 331:0 332:0 333:1 334:1 335:1 336:1 337:1 338:1 339:1 340:1 341:1 342:1 343:1 344:1 345:1 346:0 347:0 348:0 349:0 350:0 351:0 352:1 353:1 354:1 355:1 356:1 357:1 358:1 359:1 360:1 361:1 362:1 363:1 364:1 365:1 366:1 367:1 368:0 369:1 370:1 371:1 372:1 373:1 374:1 375:1 376:1 377:1 378:1 379:1 380:1 381:1 382:1 383:1 384:1 385:1 386:1 387:1 388:1 389:1 390:1 391:1 392:1 393:1 394:1 395:1 396:1 397:1 398:1 399:1 
0.5868786715864054 2.268115942485775 0.4180146447597177 0 0.3535568052270016 0.2869491488389307 0 1.744494407308725 0.9071911291989022 0:1 1:1 2:1 3:1 4:1 5:1 6:1 7:1 8:1 9:1 10:1 11:1 12:1 13:1 14:1 15:1 16:1 17:1 18:1 19:1 20:1 21:1 22:1 23:1 24:1 25:1 26:1 27:1 28:1 29:1 30:1 31:1 32:1 33:1 34:1 35:1 36:1 37:1 38:1 39:1 40:1 41:1 42:1 43:1 44:1 45:1 46:1 47:1 48:0 49:0 50:0 51:0 52:1 53:1 54:1 55:1 56:1 57:1 58:1 59:1 60:1 61:1 62:1 63:1 64:1 65:1 66:0 67:0 68:0 69:0 70:0 71:0 72:0 73:1 74:1 75:1 76:1 77:1 78:1 79:1 80:1 81:1 82:1 83:1 84:1 85:0 86:0 87:0 88:1 89:1 90:1 91:0 92:0 93:0 94:1 95:1 96:1 97:1 98:1 99:1 100:1 101:1 102:1 103:1 104:1 105:0 106:0 107:1 108:1 109:1 110:1 111:1 112:1 113:0 114:0 115:1 116:1 117:1 118:1 119:1 120:1 121:1 122:1 123:1 124:1 125:0 126:0 127:1 128:1 129:1 130:1 131:1 132:1 133:0 134:0 135:0 136:1 137:1 138:1 139:1 140:1 141:1 142:1 143:1 144:0 145:0 146:1 147:1 148:1 149:1 150:1 151:1 152:1 153:1 154:0 155:0 156:1 157:1 158:1 159:1 160:1 161:1 162:1 163:1 164:0 165:0 166:1 167:1 168:1 169:1 170:1 171:1 172:1 173:1 174:1 175:0 176:0 177:1 178:1 179:1 180:1 181:1 182:1 183:1 184:0 185:0 186:1 187:1 188:1 189:1 190:1 191:1 192:1 193:1 194:1 195:0 196:0 197:1 198:1 199:1 200:1 201:1 202:1 203:1 204:1 205:0 206:0 207:1 208:1 209:1 210:1 211:1 212:1 213:1 214:1 215:0 216:0 217:1 218:1 219:1 220:1 221:1 222:1 223:1 224:1 225:0 226:0 227:1 228:1 229:1 230:1 231:1 232:1 233:1 234:1 235:0 236:0 237:1 238:1 239:1 240:1 241:1 242:1 243:1 244:1 245:0 246:0 247:0 248:1 249:1 250:1 251:1 252:1 253:1 254:1 255:0 256:0 257:0 258:1 259:1 260:1 261:1 262:1 263:1 264:1 265:1 266:0 267:0 268:1 269:1 270:1 271:1 272:1 273:1 274:1 275:1 276:0 277:0 278:1 279:1 280:1 281:1 282:1 283:1 284:1 285:1 286:0 287:0 288:0 289:1 290:1 291:1 292:1 293:1 294:1 295:0 296:0 297:1 298:1 299:1 300:1 301:1 302:1 303:1 304:1 305:1 306:1 307:0 308:0 309:0 310:1 311:1 312:1 313:1 314:1 315:0 316:0 317:1 318:1 319:1 320:1 321:1 322:1 323:1 324:1 325:1 326:1 327:1 328:0 329:0 330:0 331:1 332:0 333:0 334:0 335:0 336:1 337:1 338:1 339:1 340:1 341:1 342:1 343:1 344:1 345:1 346:1 347:1 348:1 349:0 350:0 351:0 352:0 353:0 354:0 355:1 356:1 357:1 358:1 359:1 360:1 361:1 362:1 363:1 364:1 365:1 366:1 367:1 368:1 369:1 370:1 371:0 372:0 373:1 374:1 375:1 376:1 377:1 378:1 379:1 380:1 381:1 382:1 383:1 384:1 385:1 386:1 387:1 388:1 389:1 390:1 391:1 392:1 393:1 394:1 395:1 396:1 397:1 398:1 399:1 
0 0 0 2.164314060259994 0.01317748091123983 0 0 1.72053461542201 0 0:1 1:1 2:1 3:1 4:1 5:1 6:1 7:1 8:1 9:1 10:1 11:1 12:1 13:1 14:1 15:1 16:1 17:1 18:1 19:1 20:1 21:1 22:1 23:1 24:1 25:1 26:1 27:1 28:1 29:1 30:1 31:1 32:1 33:1 34:1 35:1 36:1 37:1 38:1 39:1 40:1 41:1 42:1 43:1 44:1 45:1 46:1 47:1 48:1 49:1 50:1 51:1 52:1 53:1 54:1 55:1 56:1 57:1 58:1 59:1 60:1 61:1 62:1 63:1 64:1 65:1 66:1 67:1 68:1 69:1 70:1 71:1 72:1 73:1 74:1 75:1 76:1 77:1 78:1 79:1 80:1 81:1 82:1 83:1 84:1 85:1 86:1 87:1 88:1 89:1 90:1 91:1 92:1 93:1 94:1 95:1 96:1 97:1 98:1 99:1 100:1 101:1 102:1 103:1 104:1 105:1 106:1 107:1 108:0 109:0 110:0 111:0 112:1 113:1 114:1 115:1 116:1 117:1 118:1 119:1 120:1 121:1 122:1 123:1 124:1 125:1 126:1 127:0 128:0 129:0 130:0 131:0 132:0 133:0 134:1 135:1 136:1 137:1 138:1 139:1 140:1 141:1 142:1 143:1 144:1 145:1 146:0 147:0 148:0 149:1 150:1 151:1 152:0 153:0 154:1 155:1 156:1 157:1 158:1 159:1 160:1 161:1 162:1 163:1 164:1 165:1 166:0 167:0 168:1 169:1 170:1 171:1 172:1 173:0 174:0 175:1 176:1 177:1 178:1 179:1 180:1 181:1 182:1 183:1 184:1 185:1 186:0 187:0 188:1 189:1 190:1 191:1 192:1 193:0 194:0 195:1 196:1 197:1 198:1 199:1 200:1 201:1 202:1 203:1 204:1 205:1 206:0 207:0 208:1 209:1 210:1 211:1 212:1 213:0 214:0 215:1 216:1 217:1 218:1 219:1 220:1 221:1 222:1 223:1 224:1 225:1 226:0 227:0 228:1 229:1 230:1 231:1 232:1 233:1 234:0 235:1 236:1 237:1 238:1 239:1 240:1 241:1 242:1 243:1 244:1 245:1 246:1 247:0 248:0 249:1 250:1 251:1 252:1 253:1 254:0 255:0 256:1 257:1 258:1 259:1 260:1 261:1 262:1 263:1 264:1 265:1 266:1 267:0 268:0 269:1 270:1 271:1 272:1 273:0 274:0 275:0 276:1 277:1 278:1 279:1 280:1 281:1 282:1 283:1 284:1 285:1 286:1 287:1 288:0 289:0 290:0 291:1 292:0 293:0 294:0 295:1 296:1 297:1 298:1 299:1 300:1 301:1 302:1 303:1 304:1 305:1 306:1 307:1 308:1 309:0 310:0 311:0 312:0 313:0 314:1 315:1 316:1 317:1 318:1 319:1 320:1 321:1 322:1 323:1 324:1 325:1 326:1 327:1 328:1 329:1 330:1 331:0 332:1 333:1 334:1 335:1 336:1 337:1 338:1 339:1 340:1 341:1 342:1 343:1 344:1 345:1 346:1 347:1 348:1 349:1 350:1 351:1 352:1 353:1 354:1 355:1 356:1 357:1 358:1 359:1 360:1 361:1 362:1 363:1 364:1 365:1 366:1 367:1 368:1 369:1 370:1 371:1 372:1 373:1 374:1 375:1 376:1 377:1 378:1 379:1 380:1 381:1 382:1 383:1 384:1 385:1 386:1 387:1 388:1 389:1 390:1 391:1 392:1 393:1 394:1 395:1 396:1 397:1 398:1 399:1 
1.612990089625341 1.995160776559429 0.3271077666516996 0 3.102130366684269 2.376682169053229 1.980838733378251 0.5321189502124062 0 0:1 1:1 2:1 3:1 4:1 5:1 6:1 7:1 8:1 9:1 10:1 11:1 12:1 13:1 14:1 15:1 16:1 17:1 18:1 19:1 20:1 21:1 22:1 23:1 24:1 25:1 26:1 27:1 28:1 29:1 30:1 31:1 32:1 33:1 34:1 35:1 36:1 37:1 38:1 39:1 40:1 41:1 42:1 43:1 44:1 45:1 46:1 47:1 48:1 49:1 50:1 51:1 52:1 53:1 54:1 55:1 56:1 57:1 58:1 59:1 60:1 61:1 62:1 63:1 64:1 65:1 66:1 67:1 68:1 69:1 70:1 71:1 72:1 73:1 74:1 75:1 76:1 77:1 78:1 79:1 80:1 81:1 82:1 83:1 84:1 85:1 86:1 87:1 88:1 89:1 90:1 91:1 92:1 93:1 94:1 95:1 96:1 97:1 98:1 99:1 100:1 101:1 102:1 103:1 104:1 105:1 106:1 107:1 108:1 109:0 110:0 111:0 112:1 113:1 114:1 115:1 116:1 117:1 118:1 119:1 120:1 121:1 122:1 123:1 124:1 125:1 126:1 127:0 128:0 129:0 130:0 131:0 132:0 133:1 134:1 135:1 136:1 137:1 138:1 139:1 140:1 141:1 142:1 143:1 144:1 145:1 146:1 147:0 148:0 149:1 150:1 151:1 152:0 153:0 154:1 155:1 156:1 157:1 158:1 159:1 160:1 161:1 162:1 163:1 164:1 165:1 166:1 167:0 168:1 169:1 170:1 171:1 172:1 173:0 174:0 175:1 176:1 177:1 178:1 179:1 180:1 181:1 182:1 183:1 184:1 185:1 186:0 187:0 188:1 189:1 190:1 191:1 192:1 193:0 194:0 195:1 196:1 197:1 198:1 199:1 200:1 201:1 202:1 203:1 204:1 205:1 206:0 207:0 208:1 209:1 210:1 211:1 212:1 213:1 214:0 215:0 216:1 217:1 218:1 219:1 220:1 221:1 222:1 223:1 224:1 225:1 226:1 227:0 228:0 229:1 230:1 231:1 232:1 233:1 234:0 235:0 236:1 237:1 238:1 239:1 240:1 241:1 242:1 243:1 244:1 245:1 246:1 247:0 248:0 249:1 250:1 251:1 252:1 253:1 254:0 255:0 256:1 257:1 258:1 259:1 260:1 261:1 262:1 263:1 264:1 265:1 266:1 267:1 268:0 269:0 270:1 271:1 272:1 273:1 274:0 275:0 276:1 277:1 278:1 279:1 280:1 281:1 282:1 283:1 284:1 285:1 286:1 287:1 288:0 289:0 290:1 291:1 292:1 293:1 294:0 295:0 296:1 297:1 298:1 299:1 300:1 301:1 302:1 303:1 304:1 305:1 306:1 307:1 308:1 309:0 310:0 311:0 312:1 313:0 314:0 315:0 316:1 317:1 318:1 319:1 320:1 321:1 322:1 323:1 324:1 325:1 326:1 327:1 328:1 329:1 330:0 331:0 332:0 333:0 334:0 335:1 336:1 337:1 338:1 339:1 340:1 341:1 342:1 343:1 344:1 345:1 346:1 347:1 348:1 349:1 350:1 351:1 352:1 353:1 354:1 355:1 356:1 357:1 358:1 359:1 360:1 361:1 362:1 363:1 364:1 365:1 366:1 367:1 368:1 369:1 370:1 371:1 372:1 373:1 374:1 375:1 376:1 377:1 378:1 379:1 380:1 381:1 382:1 383:1 384:1 385:1 386:1 387:1 388:1 389:1 390:1 391:1 392:1 393:1 394:1 395:1 396:1 397:1 398:1 399:1 
0.06173425730999507 0.6241166412275695 2.217991662780293 0 0.5856481248628996 0.3569623876058517 0 1.537923351048331 0.2056829889276936 0:1 1:1 2:1 3:1 4:1 5:1 6:1 7:1 8:1 9:1 10:1 11:1 12:1 13:1 14:1 15:1 16:1 17:1 18:1 19:1 20:1 21:1 22:1 23:1 24:1 25:1 26:1 27:1 28:1 29:1 30:1 31:1 32:1 33:1 34:1 35:1 36:1 37:1 38:1 39:1 40:1 41:1 42:1 43:1 44:1 45:1 46:1 47:0 48:0 49:0 50:0 51:0 52:1 53:1 54:1 55:1 56:1 57:1 58:1 59:1 60:1 61:1 62:1 63:1 64:1 65:1 66:0 67:0 68:0 69:0 70:0 71:0 72:0 73:1 74:1 75:1 76:1 77:1 78:1 79:1 80:1 81:1 82:1 83:1 84:1 85:0 86:0 87:0 88:1 89:1 90:1 91:0 92:0 93:0 94:1 95:1 96:1 97:1 98:1 99:1 100:1 101:1 102:1 103:1 104:0 105:0 106:0 107:1 108:1 109:1 110:1 111:1 112:0 113:0 114:0 115:1 116:1 117:1 118:1 119:1 120:1 121:1 122:1 123:1 124:0 125:0 126:1 127:1 128:1 129:1 130:1 131:1 132:1 133:0 134:0 135:0 136:1 137:1 138:1 139:1 140:1 141:1 142:1 143:1 144:0 145:0 146:1 147:1 148:1 149:1 150:1 151:1 152:1 153:1 154:0 155:0 156:1 157:1 158:1 159:1 160:1 161:1 162:1 163:1 164:0 165:0 166:1 167:1 168:1 169:1 170:1 171:1 172:1 173:1 174:0 175:0 176:0 177:1 178:1 179:1 180:1 181:1 182:1 183:1 184:0 185:0 186:1 187:1 188:1 189:1 190:1 191:1 192:1 193:1 194:1 195:0 196:0 197:1 198:1 199:1 200:1 201:1 202:1 203:1 204:0 205:0 206:1 207:1 208:1 209:1 210:1 211:1 212:1 213:1 214:1 215:0 216:0 217:1 218:1 219:1 220:1 221:1 222:1 223:1 224:0 225:0 226:0 227:1 228:1 229:1 230:1 231:1 232:1 233:1 234:1 235:0 236:0 237:0 238:1 239:1 240:1 241:1 242:1 243:1 244:1 245:0 246:0 247:1 248:1 249:1 250:1 251:1 252:1 253:1 254:1 255:0 256:0 257:0 258:1 259:1 260:1 261:1 262:1 263:1 264:1 265:1 266:0 267:0 268:1 269:1 270:1 271:1 272:1 273:1 274:1 275:0 276:0 277:1 278:1 279:1 280:1 281:1 282:1 283:1 284:1 285:1 286:0 287:0 288:0 289:1 290:1 291:1 292:1 293:1 294:1 295:0 296:0 297:1 298:1 299:1 300:1 301:1 302:1 303:1 304:1 305:1 306:1 307:0 308:0 309:0 310:1 311:1 312:1 313:1 314:0 315:0 316:0 317:1 318:1 319:1 320:1 321:1 322:1 323:1 324:1 325:1 326:1 327:1 328:0 329:0 330:0 331:0 332:0 333:0 334:0 335:0 336:1 337:1 338:1 339:1 340:1 341:1 342:1 343:1 344:1 345:1 346:1 347:1 348:1 349:0 350:0 351:0 352:0 353:0 354:0 355:1 356:1 357:1 358:1 359:1 360:1 361:1 362:1 363:1 364:1 365:1 366:1 367:1 368:1 369:1 370:0 371:0 372:0 373:1 374:1 375:1 376:1 377:1 378:1 379:1 380:1 381:1 382:1 383:1 384:1 385:1 386:1 387:1 388:1 389:1 390:1 391:1 392:1 393:1 394:1 395:1 396:1 397:1 398:1 399:1 
0 0 0 0 0 0.07206258286437958 0 0 0 0:1 1:1 2:1 3:1 4:1 5:1 6:1 7:1 8:1 9:1 10:1 11:1 12:1 13:1 14:1 15:1 16:1 17:1 18:1 19:1 20:1 21:1 22:1 23:1 24:1 25:1 26:1 27:1 28:1 29:1 30:1 31:1 32:1 33:1 34:1 35:1 36:1 37:1 38:1 39:1 40:1 41:1 42:1 43:1 44:1 45:1 46:1 47:1 48:1 49:0 50:0 51:0 52:0 53:1 54:1 55:1 56:1 57:1 58:1 59:1 60:1 61:1 62:1 63:1 64:1 65:1 66:1 67:0 68:0 69:0 70:0 71:0 72:0 73:0 74:1 75:1 76:1 77:1 78:1 79:1 80:1 81:1 82:1 83:1 84:1 85:1 86:1 87:0 88:0 89:0 90:1 91:1 92:0 93:0 94:0 95:1 96:1 97:1 98:1 99:1 100:1 101:1 102:1 103:1 104:1 105:1 106:0 107:0 108:1 109:1 110:1 111:1 112:1 113:1 114:0 115:0 116:1 117:1 118:1 119:1 120:1 121:1 122:1 123:1 124:1 125:1 126:0 127:0 128:1 129:1 130:1 131:1 132:1 133:1 134:0 135:0 136:1 137:1 138:1 139:1 140:1 141:1 142:1 143:1 144:1 145:0 146:0 147:0 148:1 149:1 150:1 151:1 152:1 153:1 154:1 155:0 156:0 157:1 158:1 159:1 160:1 161:1 162:1 163:1 164:1 165:0 166:0 167:1 168:1 169:1 170:1 171:1 172:1 173:1 174:1 175:0 176:0 177:1 178:1 179:1 180:1 181:1 182:1 183:1 184:1 185:0 186:0 187:1 188:1 189:1 190:1 191:1 192:1 193:1 194:1 195:0 196:0 197:1 198:1 199:1 200:1 201:1 202:1 203:1 204:1 205:0 206:0 207:1 208:1 209:1 210:1 211:1 212:1 213:1 214:1 215:0 216:0 217:1 218:1 219:1 220:1 221:1 222:1 223:1 224:1 225:0 226:0 227:1 228:1 229:1 230:1 231:1 232:1 233:1 234:1 235:0 236:0 237:1 238:1 239:1 240:1 241:1 242:1 243:1 244:1 245:0 246:0 247:0 248:1 249:1 250:1 251:1 252:1 253:1 254:1 255:0 256:0 257:1 258:1 259:1 260:1 261:1 262:1 263:1 264:1 265:1 266:0 267:0 268:1 269:1 270:1 271:1 272:1 273:1 274:1 275:0 276:0 277:1 278:1 279:1 280:1 281:1 282:1 283:1 284:1 285:1 286:0 287:0 288:1 289:1 290:1 291:1 292:1 293:1 294:1 295:0 296:0 297:1 298:1 299:1 300:1 301:1 302:1 303:1 304:1 305:1 306:0 307:0 308:1 309:1 310:1 311:1 312:1 313:1 314:0 315:0 316:0 317:1 318:1 319:1 320:1 321:1 322:1 323:1 324:1 325:1 326:1 327:0 328:0 329:1 330:1 331:1 332:1 333:1 334:0 335:0 336:1 337:1 338:1 339:1 340:1 341:1 342:1 343:1 344:1 345:1 346:1 347:0 348:0 349:0 350:0 351:0 352:0 353:0 354:0 355:1 356:1 357:1 358:1 359:1 360:1 361:1 362:1 363:1 364:1 365:1 366:1 367:1 368:0 369:0 370:0 371:0 372:0 373:0 374:1 375:1 376:1 377:1 378:1 379:1 380:1 381:1 382:1 383:1 384:1 385:1 386:1 387:1 388:1 389:1 390:0 391:1 392:1 393:1 394:1 395:1 396:1 397:1 398:1 399:1 
0 0 2.056892366980246 0 0 2.83335595802462 0 0 0 0:1 1:1 2:1 3:1 4:1 5:1 6:1 7:1 8:1 9:1 10:1 11:1 12:1 13:1 14:1 15:1 16:1 17:1 18:1 19:1 20:1 21:1 22:1 23:1 24:1 25:1 26:1 27:1 28:1 29:1 30:1 31:1 32:1 33:1 34:1 35:1 36:1 37:1 38:1 39:1 40:1 41:1 42:1 43:1 44:1 45:1 46:1 47:1 48:1 49:1 50:1 51:1 52:1 53:1 54:1 55:1 56:1 57:1 58:1 59:1 60:1 61:1 62:1 63:1 64:1 65:1 66:1 67:1 68:1 69:1 70:1 71:1 72:1 73:1 74:1 75:1 76:1 77:1 78:1 79:1 80:1 81:1 82:1 83:1 84:1 85:1 86:1 87:1 88:1 89:1 90:1 91:0 92:1 93:1 94:1 95:1 96:1 97:1 98:1 99:1 100:1 101:1 102:1 103:1 104:1 105:1 106:1 107:1 108:0 109:0 110:0 111:0 112:0 113:0 114:1 115:1 116:1 117:1 118:1 119:1 120:1 121:1 122:1 123:1 124:1 125:1 126:1 127:0 128:0 129:0 130:1 131:1 132:1 133:0 134:0 135:1 136:1 137:1 138:1 139:1 140:1 141:1 142:1 143:1 144:1 145:1 146:0 147:0 148:1 149:1 150:1 151:1 152:1 153:1 154:0 155:0 156:1 157:1 158:1 159:1 160:1 161:1 162:1 163:1 164:1 165:1 166:0 167:0 168:1 169:1 170:1 171:1 172:1 173:1 174:0 175:0 176:1 177:1 178:1 179:1 180:1 181:1 182:1 183:1 184:1 185:1 186:0 187:1 188:1 189:1 190:1 191:1 192:1 193:1 194:0 195:0 196:1 197:1 198:1 199:1 200:1 201:1 202:1 203:1 204:1 205:0 206:0 207:1 208:1 209:1 210:1 211:1 212:1 213:1 214:0 215:0 216:1 217:1 218:1 219:1 220:1 221:1 222:1 223:1 224:1 225:1 226:0 227:1 228:1 229:1 230:1 231:1 232:1 233:1 234:0 235:0 236:1 237:1 238:1 239:1 240:1 241:1 242:1 243:1 244:1 245:1 246:0 247:1 248:1 249:1 250:1 251:1 252:1 253:1 254:0 255:0 256:1 257:1 258:1 259:1 260:1 261:1 262:1 263:1 264:1 265:1 266:0 267:1 268:1 269:1 270:1 271:1 272:1 273:1 274:0 275:0 276:1 277:1 278:1 279:1 280:1 281:1 282:1 283:1 284:1 285:1 286:0 287:0 288:1 289:1 290:1 291:1 292:1 293:1 294:0 295:0 296:1 297:1 298:1 299:1 300:1 301:1 302:1 303:1 304:1 305:1 306:0 307:0 308:1 309:1 310:1 311:1 312:1 313:0 314:0 315:1 316:1 317:1 318:1 319:1 320:1 321:1 322:1 323:1 324:1 325:1 326:1 327:0 328:0 329:0 330:0 331:0 332:0 333:0 334:1 335:1 336:1 337:1 338:1 339:1 340:1 341:1 342:1 343:1 344:1 345:1 346:1 347:1 348:0 349:0 350:0 351:0 352:0 353:1 354:1 355:1 356:1 357:1 358:1 359:1 360:1 361:1 362:1 363:1 364:1 365:1 366:1 367:1 368:1 369:1 370:1 371:1 372:1 373:1 374:1 375:1 376:1 377:1 378:1 379:1 380:1 381:1 382:1 383:1 384:1 385:1 386:1 387:1 388:1 389:1 390:1 391:1 392:1 393:1 394:1 395:1 396:1 397:1 398:1 399:1 
0 0 0 0 0 0 0 0 1.069019531332066 0:1 1:1 2:1 3:1 4:1 5:1 6:1 7:1 8:1 9:1 10:1 11:1 12:1 13:1 14:1 15:1 16:1 17:1 18:1 19:1 20:1 21:1 22:1 23:1 24:1 25:1 26:1 27:1 28:1 29:1 30:1 31:1 32:1 33:1 34:1 35:1 36:1 37:1 38:1 39:1 40:1 41:1 42:1 43:1 44:1 45:1 46:1 47:1 48:1 49:1 50:1 51:1 52:1 53:1 54:1 55:1 56:1 57:1 58:1 59:1 60:1 61:1 62:1 63:1 64:1 65:1 66:1 67:1 68:1 69:1 70:0 71:0 72:0 73:1 74:1 75:1 76:1 77:1 78:1 79:1 80:1 81:1 82:1 83:1 84:1 85:1 86:1 87:1 88:0 89:0 90:0 91:0 92:0 93:0 94:0 95:1 96:1 97:1 98:1 99:1 100:1 101:1 102:1 103:1 104:1 105:1 106:1 107:0 108:0 109:0 110:0 111:1 112:0 113:0 114:0 115:1 116:1 117:1 118:1 119:1 120:1 121:1 122:1 123:1 124:1 125:1 126:0 127:0 128:0 129:1 130:1 131:1 132:1 133:0 134:0 135:0 136:1 137:1 138:1 139:1 140:1 141:1 142:1 143:1 144:1 145:0 146:0 147:0 148:1 149:1 150:1 151:1 152:1 153:1 154:0 155:0 156:1 157:1 158:1 159:1 160:1 161:1 162:1 163:1 164:1 165:0 166:0 167:1 168:1 169:1 170:1 171:1 172:1 173:1 174:0 175:0 176:0 177:1 178:1 179:1 180:1 181:1 182:1 183:1 184:1 185:0 186:0 187:1 188:1 189:1 190:1 191:1 192:1 193:1 194:0 195:0 196:1 197:1 198:1 199:1 200:1 201:1 202:1 203:1 204:0 205:0 206:1 207:1 208:1 209:1 210:1 211:1 212:1 213:1 214:0 215:0 216:1 217:1 218:1 219:1 220:1 221:1 222:1 223:1 224:0 225:0 226:1 227:1 228:1 229:1 230:1 231:1 232:1 233:1 234:0 235:0 236:1 237:1 238:1 239:1 240:1 241:1 242:1 243:1 244:0 245:0 246:1 247:1 248:1 249:1 250:1 251:1 252:1 253:0 254:0 255:1 256:1 257:1 258:1 259:1 260:1 261:1 262:1 263:1 264:0 265:0 266:1 267:1 268:1 269:1 270:1 271:1 272:1 273:0 274:0 275:1 276:1 277:1 278:1 279:1 280:1 281:1 282:1 283:1 284:0 285:0 286:1 287:1 288:1 289:1 290:1 291:1 292:0 293:0 294:0 295:1 296:1 297:1 298:1 299:1 300:1 301:1 302:1 303:1 304:0 305:0 306:0 307:1 308:1 309:1 310:1 311:0 312:0 313:0 314:1 315:1 316:1 317:1 318:1 319:1 320:1 321:1 322:1 323:1 324:0 325:0 326:0 327:0 328:0 329:0 330:0 331:0 332:0 333:1 334:1 335:1 336:1 337:1 338:1 339:1 340:1 341:1 342:1 343:1 344:1 345:0 346:0 347:0 348:0 349:0 350:0 351:0 352:1 353:1 354:1 355:1 356:1 357:1 358:1 359:1 360:1 361:1 362:1 363:1 364:1 365:1 366:1 367:0 368:0 369:0 370:0 371:1 372:1 373:1 374:1 375:1 376:1 377:1 378:1 379:1 380:1 381:1 382:1 383:1 384:1 385:1 386:1 387:1 388:1 389:1 390:1 391:1 392:1 393:1 394:1 395:1 396:1 397:1 398:1 399:1 
0 0 0 0 0 0 0 0 0.2126844440897687 0:1 1:1 2:1 3:1 4:1 5:1 6:1 7:1 8:1 9:1 10:1 11:1 12:1 13:1 14:1 15:1 16:1 17:1 18:1 19:1 20:1 21:1 22:1 23:1 24:1 25:1 26:1 27:1 28:1 29:1 30:1 31:1 32:1 33:1 34:1 35:1 36:1 37:1 38:1 39:1 40:1 41:1 42:1 43:1 44:1 45:1 46:1 47:1 48:1 49:1 50:1 51:1 52:1 53:1 54:1 55:1 56:1 57:1 58:1 59:1 60:1 61:1 62:1 63:1 64:1 65:1 66:1 67:1 68:1 69:0 70:0 71:0 72:0 73:1 74:1 75:1 76:1 77:1 78:1 79:1 80:1 81:1 82:1 83:1 84:1 85:1 86:1 87:1 88:0 89:0 90:0 91:0 92:0 93:0 94:1 95:1 96:1 97:1 98:1 99:1 100:1 101:1 102:1 103:1 104:1 105:1 106:0 107:0 108:0 109:1 110:1 111:1 112:1 113:0 114:0 115:1 116:1 117:1 118:1 119:1 120:1 121:1 122:1 123:1 124:1 125:1 126:0 127:0 128:1 129:1 130:1 131:1 132:1 133:1 134:0 135:1 136:1 137:1 138:1 139:1 140:1 141:1 142:1 143:1 144:1 145:1 146:0 147:1 148:1 149:1 150:1 151:1 152:1 153:1 154:0 155:0 156:1 157:1 158:1 159:1 160:1 161:1 162:1 163:1 164:1 165:0 166:0 167:1 168:1 169:1 170:1 171:1 172:1 173:1 174:0 175:0 176:1 177:1 178:1 179:1 180:1 181:1 182:1 183:1 184:1 185:0 186:0 187:1 188:1 189:1 190:1 191:1 192:1 193:1 194:0 195:0 196:1 197:1 198:1 199:1 200:1 201:1 202:1 203:1 204:1 205:0 206:0 207:1 208:1 209:1 210:1 211:1 212:1 213:1 214:0 215:0 216:1 217:1 218:1 219:1 220:1 221:1 222:1 223:1 224:1 225:0 226:0 227:1 228:1 229:1 230:1 231:1 232:1 233:1 234:0 235:0 236:1 237:1 238:1 239:1 240:1 241:1 242:1 243:1 244:1 245:0 246:0 247:1 248:1 249:1 250:1 251:1 252:1 253:1 254:0 255:1 256:1 257:1 258:1 259:1 260:1 261:1 262:1 263:1 264:1 265:0 266:0 267:1 268:1 269:1 270:1 271:1 272:1 273:0 274:0 275:1 276:1 277:1 278:1 279:1 280:1 281:1 282:1 283:1 284:1 285:0 286:0 287:1 288:1 289:1 290:1 291:1 292:1 293:0 294:0 295:1 296:1 297:1 298:1 299:1 300:1 301:1 302:1 303:1 304:1 305:1 306:0 307:1 308:1 309:1 310:1 311:1 312:1 313:0 314:1 315:1 316:1 317:1 318:1 319:1 320:1 321:1 322:1 323:1 324:1 325:1 326:0 327:0 328:1 329:1 330:1 331:0 332:0 333:0 334:1 335:1 336:1 337:1 338:1 339:1 340:1 341:1 342:1 343:1 344:1 345:1 346:1 347:0 348:0 349:0 350:0 351:0 352:0 353:1 354:1 355:1 356:1 357:1 358:1 359:1 360:1 361:1 362:1 363:1 364:1 365:1 366:1 367:1 368:1 369:0 370:0 371:1 372:1 373:1 374:1 375:1 376:1 377:1 378:1 379:1 380:1 381:1 382:1 383:1 384:1 385:1 386:1 387:1 388:1 389:1 390:1 391:1 392:1 393:1 394:1 395:1 396:1 397:1 398:1 399:1 
0 0 0 0 2.562383642124118 0 0 5.185350133359995 0.4848487753362084 0:1 1:1 2:1 3:1 4:1 5:1 6:1 7:1 8:1 9:1 10:1 11:1 12:1 13:1 14:1 15:1 16:1 17:1 18:1 19:1 20:1 21:1 22:1 23:1 24:1 25:1 26:1 27:1 28:1 29:1 30:1 31:1 32:1 33:1 34:1 35:1 36:1 37:1 38:1 39:1 40:1 41:1 42:1 43:1 44:1 45:1 46:1 47:1 48:1 49:1 50:1 51:1 52:1 53:1 54:1 55:1 56:1 57:1 58:1 59:1 60:1 61:1 62:1 63:1 64:1 65:1 66:1 67:1 68:1 69:1 70:1 71:1 72:1 73:1 74:1 75:1 76:1 77:1 78:1 79:1 80:1 81:1 82:1 83:1 84:1 85:1 86:1 87:1 88:1 89:0 90:0 91:0 92:0 93:1 94:1 95:1 96:1 97:1 98:1 99:1 100:1 101:1 102:1 103:1 104:1 105:1 106:1 107:1 108:0 109:0 110:0 111:0 112:0 113:0 114:1 115:1 116:1 117:1 118:1 119:1 120:1 121:1 122:1 123:1 124:1 125:1 126:1 127:0 128:0 129:0 130:1 131:1 132:0 133:0 134:0 135:1 136:1 137:1 138:1 139:1 140:1 141:1 142:1 143:1 144:1 145:1 146:1 147:0 148:0 149:1 150:1 151:1 152:1 153:0 154:0 155:1 156:1 157:1 158:1 159:1 160:1 161:1 162:1 163:1 164:1 165:1 166:0 167:0 168:0 169:1 170:1 171:1 172:1 173:0 174:0 175:0 176:1 177:1 178:1 179:1 180:1 181:1 182:1 183:1 184:1 185:1 186:1 187:0 188:0 189:1 190:1 191:1 192:1 193:1 194:0 195:0 196:1 197:1 198:1 199:1 200:1 201:1 202:1 203:1 204:1 205:1 206:1 207:0 208:0 209:1 210:1 211:1 212:1 213:1 214:0 215:0 216:1 217:1 218:1 219:1 220:1 221:1 222:1 223:1 224:1 225:1 226:1 227:0 228:0 229:1 230:1 231:1 232:1 233:1 234:0 235:0 236:1 237:1 238:1 239:1 240:1 241:1 242:1 243:1 244:1 245:1 246:1 247:0 248:0 249:0 250:1 251:1 252:1 253:1 254:0 255:0 256:1 257:1 258:1 259:1 260:1 261:1 262:1 263:1 264:1 265:1 266:1 267:1 268:0 269:0 270:1 271:1 272:1 273:1 274:0 275:0 276:1 277:1 278:1 279:1 280:1 281:1 282:1 283:1 284:1 285:1 286:1 287:1 288:0 289:0 290:0 291:1 292:1 293:0 294:0 295:0 296:1 297:1 298:1 299:1 300:1 301:1 302:1 303:1 304:1 305:1 306:1 307:1 308:1 309:0 310:0 311:0 312:0 313:0 314:0 315:1 316:1 317:1 318:1 319:1 320:1 321:1 322:1 323:1 324:1 325:1 326:1 327:1 328:1 329:1 330:0 331:0 332:0 333:0 334:1 335:1 336:1 337:1 338:1 339:1 340:1 341:1 342:1 343:1 344:1 345:1 346:1 347:1 348:1 349:1 350:1 351:1 352:1 353:1 354:1 355:1 356:1 357:1 358:1 359:1 360:1 361:1 362:1 363:1 364:1 365:1 366:1 367:1 368:1 369:1 370:1 371:1 372:1 373:1 374:1 375:1 376:1 377:1 378:1 379:1 380:1 381:1 382:1 383:1 384:1 385:1 386:1 387:1 388:1 389:1 390:1 391:1 392:1 393:1 394:1 395:1 396:1 397:1 398:1 399:1 
0 0 0 0 0 0.1951010749747973 0 0 0 0:1 1:1 2:1 3:1 4:1 5:1 6:1 7:1 8:1 9:1 10:1 11:1 12:1 13:1 14:1 15:1 16:1 17:1 18:1 19:1 20:1 21:1 22:1 23:1 24:1 25:1 26:1 27:1 28:1 29:1 30:1 31:1 32:1 33:1 34:1 35:1 36:1 37:1 38:1 39:1 40:1 41:1 42:1 43:1 44:1 45:1 46:1 47:1 48:0 49:0 50:0 51:1 52:1 53:1 54:1 55:1 56:1 57:1 58:1 59:1 60:1 61:1 62:1 63:1 64:1 65:1 66:0 67:0 68:0 69:0 70:0 71:0 72:0 73:1 74:1 75:1 76:1 77:1 78:1 79:1 80:1 81:1 82:1 83:1 84:1 85:0 86:0 87:0 88:0 89:1 90:1 91:0 92:0 93:0 94:1 95:1 96:1 97:1 98:1 99:1 100:1 101:1 102:1 103:1 104:1 105:0 106:0 107:1 108:1 109:1 110:1 111:1 112:0 113:0 114:0 115:1 116:1 117:1 118:1 119:1 120:1 121:1 122:1 123:1 124:0 125:0 126:0 127:1 128:1 129:1 130:1 131:1 132:1 133:0 134:0 135:0 136:1 137:1 138:1 139:1 140:1 141:1 142:1 143:1 144:0 145:0 146:0 147:1 148:1 149:1 150:1 151:1 152:1 153:1 154:0 155:0 156:1 157:1 158:1 159:1 160:1 161:1 162:1 163:1 164:0 165:0 166:0 167:1 168:1 169:1 170:1 171:1 172:1 173:1 174:0 175:0 176:0 177:1 178:1 179:1 180:1 181:1 182:1 183:1 184:0 185:0 186:0 187:0 188:1 189:1 190:1 191:1 192:1 193:1 194:0 195:0 196:0 197:1 198:1 199:1 200:1 201:1 202:1 203:1 204:0 205:0 206:0 207:1 208:1 209:1 210:1 211:1 212:1 213:1 214:1 215:0 216:0 217:1 218:1 219:1 220:1 221:1 222:1 223:1 224:1 225:0 226:0 227:1 228:1 229:1 230:1 231:1 232:1 233:1 234:1 235:0 236:0 237:0 238:1 239:1 240:1 241:1 242:1 243:1 244:1 245:0 246:0 247:0 248:1 249:1 250:1 251:1 252:1 253:1 254:1 255:0 256:0 257:1 258:1 259:1 260:1 261:1 262:1 263:1 264:1 265:0 266:0 267:0 268:1 269:1 270:1 271:1 272:1 273:1 274:1 275:0 276:0 277:0 278:1 279:1 280:1 281:1 282:1 283:1 284:1 285:1 286:0 287:0 288:0 289:1 290:1 291:1 292:1 293:1 294:1 295:0 296:0 297:1 298:1 299:1 300:1 301:1 302:1 303:1 304:1 305:1 306:0 307:0 308:0 309:1 310:1 311:1 312:1 313:1 314:0 315:0 316:0 317:1 318:1 319:1 320:1 321:1 322:1 323:1 324:1 325:1 326:1 327:0 328:0 329:0 330:1 331:1 332:1 333:0 334:0 335:0 336:0 337:1 338:1 339:1 340:1 341:1 342:1 343:1 344:1 345:1 346:1 347:1 348:0 349:0 350:0 351:0 352:0 353:0 354:0 355:0 356:1 357:1 358:1 359:1 360:1 361:1 362:1 363:1 364:1 365:1 366:1 367:1 368:1 369:0 370:0 371:0 372:0 373:0 374:1 375:1 376:1 377:1 378:1 379:1 380:1 381:1 382:1 383:1 384:1 385:1 386:1 387:1 388:1 389:1 390:1 391:0 392:0 393:1 394:1 395:1 396:1 397:1 398:1 399:1 
0 0 0 0 0 0 0.07453480127238275 0 0 0:1 1:1 2:1 3:1 4:1 5:1 6:1 7:1 8:1 9:1 10:1 11:1 12:1 13:1 14:1 15:1 16:1 17:1 18:1 19:1 20:1 21:1 22:1 23:1 24:1 25:1 26:1 27:1 28:1 29:1 30:1 31:1 32:1 33:1 34:1 35:1 36:1 37:1 38:1 39:1 40:1 41:1 42:1 43:1 44:1 45:1 46:1 47:1 48:1 49:1 50:0 51:0 52:1 53:1 54:1 55:1 56:1 57:1 58:1 59:1 60:1 61:1 62:1 63:1 64:1 65:1 66:1 67:0 68:0 69:0 70:0 71:0 72:0 73:0 74:1 75:1 76:1 77:1 78:1 79:1 80:1 81:1 82:1 83:1 84:1 85:1 86:1 87:0 88:0 89:0 90:1 91:1 92:0 93:0 94:0 95:1 96:1 97:1 98:1 99:1 100:1 101:1 102:1 103:1 104:1 105:1 106:0 107:0 108:1 109:1 110:1 111:1 112:1 113:0 114:0 115:0 116:1 117:1 118:1 119:1 120:1 121:1 122:1 123:1 124:1 125:0 126:0 127:0 128:1 129:1 130:1 131:1 132:1 133:1 134:0 135:0 136:1 137:1 138:1 139:1 140:1 141:1 142:1 143:1 144:1 145:0 146:0 147:1 148:1 149:1 150:1 151:1 152:1 153:1 154:0 155:0 156:0 157:1 158:1 159:1 160:1 161:1 162:1 163:1 164:0 165:0 166:0 167:1 168:1 169:1 170:1 171:1 172:1 173:1 174:0 175:0 176:0 177:1 178:1 179:1 180:1 181:1 182:1 183:1 184:0 185:0 186:1 187:1 188:1 189:1 190:1 191:1 192:1 193:1 194:0 195:0 196:0 197:1 198:1 199:1 200:1 201:1 202:1 203:1 204:0 205:0 206:1 207:1 208:1 209:1 210:1 211:1 212:1 213:1 214:0 215:0 216:1 217:1 218:1 219:1 220:1 221:1 222:1 223:1 224:0 225:0 226:1 227:1 228:1 229:1 230:1 231:1 232:1 233:1 234:0 235:0 236:1 237:1 238:1 239:1 240:1 241:1 242:1 243:1 244:0 245:0 246:1 247:1 248:1 249:1 250:1 251:1 252:1 253:1 254:0 255:0 256:1 257:1 258:1 259:1 260:1 261:1 262:1 263:1 264:0 265:0 266:1 267:1 268:1 269:1 270:1 271:1 272:1 273:1 274:0 275:0 276:1 277:1 278:1 279:1 280:1 281:1 282:1 283:1 284:0 285:0 286:0 287:1 288:1 289:1 290:1 291:1 292:1 293:0 294:0 295:1 296:1 297:1 298:1 299:1 300:1 301:1 302:1 303:1 304:1 305:0 306:0 307:1 308:1 309:1 310:1 311:1 312:1 313:0 314:0 315:1 316:1 317:1 318:1 319:1 320:1 321:1 322:1 323:1 324:1 325:0 326:0 327:0 328:1 329:1 330:1 331:1 332:0 333:0 334:1 335:1 336:1 337:1 338:1 339:1 340:1 341:1 342:1 343:1 344:1 345:1 346:0 347:0 348:0 349:0 350:0 351:0 352:0 353:0 354:1 355:1 356:1 357:1 358:1 359:1 360:1 361:1 362:1 363:1 364:1 365:1 366:1 367:0 368:0 369:0 370:0 371:0 372:0 373:1 374:1 375:1 376:1 377:1 378:1 379:1 380:1 381:1 382:1 383:1 384:1 385:1 386:1 387:1 388:1 389:1 390:1 391:1 392:1 393:1 394:1 395:1 396:1 397:1 398:1 399:1 
2.830551022340319 1.267688006317457 2.460284834216975 1.523693812355509 1.359259712364117 1.399525445097086 2.556880641002733 0 1.993676124563572 0:1 1:1 2:1 3:1 4:1 5:1 6:1 7:1 8:1 9:1 10:1 11:1 12:1 13:1 14:1 15:1 16:1 17:1 18:1 19:1 20:1 21:1 22:1 23:1 24:1 25:1 26:1 27:1 28:1 29:1 30:1 31:1 32:1 33:1 34:1 35:1 36:1 37:1 38:1 39:1 40:1 41:1 42:1 43:1 44:1 45:1 46:1 47:1 48:1 49:1 50:1 51:1 52:1 53:1 54:1 55:1 56:1 57:1 58:1 59:1 60:1 61:1 62:1 63:1 64:1 65:1 66:1 67:1 68:0 69:0 70:0 71:0 72:0 73:0 74:1 75:1 76:1 77:1 78:1 79:1 80:1 81:1 82:1 83:1 84:1 85:1 86:0 87:0 88:0 89:0 90:1 91:1 92:0 93:0 94:0 95:1 96:1 97:1 98:1 99:1 100:1 101:1 102:1 103:1 104:1 105:1 106:0 107:0 108:1 109:1 110:1 111:1 112:1 113:1 114:0 115:0 116:1 117:1 118:1 119:1 120:1 121:1 122:1 123:1 124:1 125:1 126:0 127:1 128:1 129:1 130:1 131:1 132:1 133:1 134:0 135:0 136:1 137:1 138:1 139:1 140:1 141:1 142:1 143:1 144:1 145:0 146:0 147:1 148:1 149:1 150:1 151:1 152:1 153:1 154:0 155:0 156:1 157:1 158:1 159:1 160:1 161:1 162:1 163:1 164:1 165:0 166:0 167:1 168:1 169:1 170:1 171:1 172:1 173:1 174:0 175:0 176:1 177:1 178:1 179:1 180:1 181:1 182:1 183:1 184:1 185:0 186:0 187:1 188:1 189:1 190:1 191:1 192:1 193:1 194:1 195:0 196:1 197:1 198:1 199:1 200:1 201:1 202:1 203:1 204:1 205:0 206:1 207:1 208:1 209:1 210:1 211:1 212:1 213:1 214:1 215:0 216:1 217:1 218:1 219:1 220:1 221:1 222:1 223:1 224:1 225:0 226:0 227:1 228:1 229:1 230:1 231:1 232:1 233:1 234:0 235:0 236:1 237:1 238:1 239:1 240:1 241:1 242:1 243:1 244:1 245:0 246:1 247:1 248:1 249:1 250:1 251:1 252:1 253:1 254:0 255:0 256:1 257:1 258:1 259:1 260:1 261:1 262:1 263:1 264:1 265:0 266:0 267:1 268:1 269:1 270:1 271:1 272:1 273:1 274:0 275:0 276:1 277:1 278:1 279:1 280:1 281:1 282:1 283:1 284:1 285:0 286:0 287:1 288:1 289:1 290:1 291:1 292:1 293:1 294:0 295:0 296:1 297:1 298:1 299:1 300:1 301:1 302:1 303:1 304:1 305:0 306:0 307:1 308:1 309:1 310:1 311:1 312:1 313:0 314:0 315:1 316:1 317:1 318:1 319:1 320:1 321:1 322:1 323:1 324:1 325:1 326:0 327:0 328:1 329:1 330:1 331:1 332:1 333:0 334:0 335:1 336:1 337:1 338:1 339:1 340:1 341:1 342:1 343:1 344:1 345:1 346:0 347:0 348:0 349:0 350:0 351:0 352:0 353:0 354:1 355:1 356:1 357:1 358:1 359:1 360:1 361:1 362:1 363:1 364:1 365:1 366:1 367:0 368:0 369:0 370:0 371:0 372:0 373:1 374:1 375:1 376:1 377:1 378:1 379:1 380:1 381:1 382:1 383:1 384:1 385:1 386:1 387:1 388:1 389:1 390:1 391:1 392:1 393:1 394:1 395:1 396:1 397:1 398:1 399:1 
0 2.906099035625654 2.206558282868532 6.034324809917095 5.624723050861965 3.881414114894145 0.510162096408589 7.791015701246083 8.85501620535829 0:1 1:1 2:1 3:1 4:1 5:1 6:1 7:1 8:1 9:1 10:1 11:1 12:1 13:1 14:1 15:1 16:1 17:1 18:1 19:1 20:1 21:1 22:1 23:1 24:1 25:1 26:1 27:1 28:1 29:1 30:1 31:1 32:1 33:1 34:1 35:1 36:1 37:1 38:1 39:1 40:1 41:1 42:1 43:1 44:1 45:1 46:1 47:1 48:1 49:1 50:1 51:1 52:1 53:1 54:1 55:1 56:1 57:1 58:1 59:1 60:1 61:1 62:1 63:1 64:1 65:1 66:1 67:1 68:1 69:1 70:1 71:1 72:1 73:1 74:1 75:1 76:1 77:1 78:1 79:1 80:1 81:1 82:1 83:1 84:1 85:1 86:1 87:0 88:0 89:0 90:0 91:0 92:0 93:1 94:1 95:1 96:1 97:1 98:1 99:1 100:1 101:1 102:1 103:1 104:1 105:1 106:1 107:0 108:0 109:0 110:0 111:0 112:0 113:0 114:1 115:1 116:1 117:1 118:1 119:1 120:1 121:1 122:1 123:1 124:1 125:1 126:0 127:0 128:0 129:1 130:0 131:0 132:0 133:0 134:1 135:1 136:1 137:1 138:1 139:1 140:1 141:1 142:1 143:1 144:1 145:1 146:0 147:0 148:1 149:0 150:0 151:1 152:0 153:0 154:0 155:1 156:1 157:1 158:1 159:1 160:1 161:1 162:1 163:1 164:1 165:1 166:0 167:0 168:1 169:1 170:1 171:1 172:0 173:0 174:0 175:1 176:1 177:1 178:1 179:1 180:1 181:1 182:1 183:1 184:1 185:0 186:0 187:0 188:0 189:0 190:1 191:1 192:0 193:0 194:0 195:0 196:1 197:1 198:1 199:1 200:1 201:1 202:1 203:1 204:1 205:1 206:0 207:0 208:0 209:1 210:1 211:1 212:0 213:0 214:0 215:0 216:1 217:1 218:1 219:1 220:1 221:1 222:1 223:1 224:1 225:1 226:0 227:0 228:0 229:1 230:1 231:1 232:0 233:0 234:0 235:1 236:1 237:1 238:1 239:1 240:1 241:1 242:1 243:1 244:1 245:1 246:0 247:0 248:0 249:1 250:1 251:1 252:0 253:0 254:1 255:1 256:1 257:1 258:1 259:1 260:1 261:1 262:1 263:1 264:1 265:1 266:0 267:0 268:0 269:0 270:0 271:0 272:0 273:0 274:1 275:1 276:1 277:1 278:1 279:1 280:1 281:1 282:1 283:1 284:1 285:1 286:1 287:0 288:0 289:0 290:0 291:0 292:0 293:1 294:1 295:1 296:1 297:1 298:1 299:1 300:1 301:1 302:1 303:1 304:1 305:1 306:1 307:1 308:0 309:0 310:0 311:0 312:0 313:1 314:1 315:1 316:1 317:1 318:1 319:1 320:1 321:1 322:1 323:1 324:1 325:1 326:1 327:1 328:1 329:1 330:0 331:0 332:0 333:1 334:1 335:1 336:1 337:1 338:1 339:1 340:1 341:1 342:1 343:1 344:1 345:1 346:1 347:1 348:1 349:1 350:1 351:1 352:1 353:1 354:1 355:1 356:1 357:1 358:1 359:1 360:1 361:1 362:1 363:1 364:1 365:1 366:1 367:1 368:1 369:1 370:1 371:1 372:1 373:1 374:1 375:1 376:1 377:1 378:1 379:1 380:1 381:1 382:1 383:1 384:1 385:1 386:1 387:1 388:1 389:1 390:1 391:1 392:1 393:1 394:1 395:1 396:1 397:1 398:1 399:1 
1.834373669859246 0.4722532366409024 1.882196564353378 0.6594225385036582 3.197757951397103 1.466183963575907 2.534965487712031 0.6611900684304485 1.214943816252407 0:1 1:1 2:1 3:1 4:1 5:1 6:1 7:1 8:1 9:1 10:1 11:1 12:1 13:1 14:1 15:1 16:1 17:1 18:1 19:1 20:1 21:1 22:1 23:1 24:1 25:1 26:1 27:1 28:1 29:1 30:1 31:1 32:1 33:1 34:1 35:1 36:1 37:1 38:1 39:1 40:1 41:1 42:1 43:1 44:1 45:1 46:1 47:1 48:1 49:0 50:0 51:1 52:1 53:1 54:1 55:1 56:1 57:1 58:1 59:1 60:1 61:1 62:1 63:1 64:1 65:1 66:0 67:0 68:0 69:0 70:0 71:0 72:0 73:1 74:1 75:1 76:1 77:1 78:1 79:1 80:1 81:1 82:1 83:1 84:1 85:0 86:0 87:0 88:0 89:1 90:1 91:0 92:0 93:0 94:1 95:1 96:1 97:1 98:1 99:1 100:1 101:1 102:1 103:1 104:1 105:0 106:0 107:1 108:1 109:1 110:1 111:1 112:0 113:0 114:1 115:1 116:1 117:1 118:1 119:1 120:1 121:1 122:1 123:1 124:0 125:0 126:1 127:1 128:1 129:1 130:1 131:1 132:1 133:0 134:0 135:1 136:1 137:1 138:1 139:1 140:1 141:1 142:1 143:1 144:0 145:0 146:1 147:1 148:1 149:1 150:1 151:1 152:1 153:0 154:0 155:1 156:1 157:1 158:1 159:1 160:1 161:1 162:1 163:1 164:0 165:0 166:1 167:1 168:1 169:1 170:1 171:1 172:1 173:1 174:0 175:0 176:1 177:1 178:1 179:1 180:1 181:1 182:1 183:1 184:0 185:0 186:1 187:1 188:1 189:1 190:1 191:1 192:1 193:1 194:0 195:0 196:1 197:1 198:1 199:1 200:1 201:1 202:1 203:1 204:0 205:0 206:1 207:1 208:1 209:1 210:1 211:1 212:1 213:1 214:0 215:0 216:1 217:1 218:1 219:1 220:1 221:1 222:1 223:1 224:0 225:0 226:1 227:1 228:1 229:1 230:1 231:1 232:1 233:1 234:0 235:0 236:1 237:1 238:1 239:1 240:1 241:1 242:1 243:1 244:0 245:0 246:0 247:1 248:1 249:1 250:1 251:1 252:1 253:1 254:1 255:0 256:1 257:1 258:1 259:1 260:1 261:1 262:1 263:1 264:1 265:0 266:0 267:1 268:1 269:1 270:1 271:1 272:1 273:1 274:0 275:0 276:0 277:1 278:1 279:1 280:1 281:1 282:1 283:1 284:1 285:0 286:0 287:1 288:1 289:1 290:1 291:1 292:1 293:1 294:0 295:0 296:1 297:1 298:1 299:1 300:1 301:1 302:1 303:1 304:1 305:1 306:0 307:0 308:1 309:1 310:1 311:1 312:1 313:1 314:0 315:0 316:1 317:1 318:1 319:1 320:1 321:1 322:1 323:1 324:1 325:1 326:0 327:0 328:0 329:1 330:1 331:1 332:1 333:0 334:0 335:0 336:1 337:1 338:1 339:1 340:1 341:1 342:1 343:1 344:1 345:1 346:1 347:0 348:0 349:0 350:0 351:0 352:0 353:0 354:0 355:1 356:1 357:1 358:1 359:1 360:1 361:1 362:1 363:1 364:1 365:1 366:1 367:1 368:1 369:0 370:0 371:0 372:0 373:0 374:1 375:1 376:1 377:1 378:1 379:1 380:1 381:1 382:1 383:1 384:1 385:1 386:1 387:1 388:1 389:1 390:1 391:1 392:1 393:1 394:1 395:1 396:1 397:1 398:1 399:1 
0 0 0 1.745390898903115 0 2.365765315766581 0 0.5229867997542195 0 0:1 1:1 2:1 3:1 4:1 5:1 6:1 7:1 8:1 9:1 10:1 11:1 12:1 13:1 14:1 15:1 16:1 17:1 18:1 19:1 20:1 21:1 22:1 23:1 24:1 25:1 26:1 27:1 28:1 29:1 30:1 31:1 32:1 33:1 34:1 35:1 36:1 37:1 38:1 39:1 40:1 41:1 42:1 43:1 44:1 45:1 46:1 47:1 48:1 49:1 50:1 51:1 52:1 53:1 54:1 55:1 56:1 57:1 58:1 59:1 60:1 61:1 62:1 63:1 64:1 65:1 66:1 67:1 68:1 69:1 70:1 71:0 72:0 73:0 74:1 75:1 76:1 77:1 78:1 79:1 80:1 81:1 82:1 83:1 84:1 85:1 86:1 87:1 88:1 89:0 90:0 91:0 92:0 93:0 94:0 95:0 96:1 97:1 98:1 99:1 100:1 101:1 102:1 103:1 104:1 105:1 106:1 107:1 108:0 109:0 110:0 111:1 112:1 113:1 114:0 115:0 116:0 117:1 118:1 119:1 120:1 121:1 122:1 123:1 124:1 125:1 126:1 127:0 128:0 129:0 130:1 131:1 132:1 133:1 134:1 135:0 136:0 137:1 138:1 139:1 140:1 141:1 142:1 143:1 144:1 145:1 146:1 147:0 148:0 149:1 150:1 151:1 152:1 153:1 154:1 155:0 156:0 157:1 158:1 159:1 160:1 161:1 162:1 163:1 164:1 165:1 166:0 167:0 168:1 169:1 170:1 171:1 172:1 173:1 174:1 175:0 176:0 177:1 178:1 179:1 180:1 181:1 182:1 183:1 184:1 185:1 186:0 187:0 188:1 189:1 190:1 191:1 192:1 193:1 194:1 195:0 196:0 197:1 198:1 199:1 200:1 201:1 202:1 203:1 204:1 205:1 206:0 207:0 208:1 209:1 210:1 211:1 212:1 213:1 214:1 215:0 216:0 217:1 218:1 219:1 220:1 221:1 222:1 223:1 224:1 225:0 226:0 227:0 228:1 229:1 230:1 231:1 232:1 233:1 234:1 235:0 236:0 237:1 238:1 239:1 240:1 241:1 242:1 243:1 244:1 245:0 246:0 247:0 248:1 249:1 250:1 251:1 252:1 253:1 254:0 255:0 256:0 257:1 258:1 259:1 260:1 261:1 262:1 263:1 264:1 265:0 266:0 267:0 268:1 269:1 270:1 271:1 272:1 273:1 274:0 275:0 276:1 277:1 278:1 279:1 280:1 281:1 282:1 283:1 284:1 285:0 286:0 287:0 288:1 289:1 290:1 291:1 292:1 293:1 294:0 295:0 296:1 297:1 298:1 299:1 300:1 301:1 302:1 303:1 304:1 305:1 306:0 307:0 308:1 309:1 310:1 311:1 312:1 313:0 314:0 315:0 316:1 317:1 318:1 319:1 320:1 321:1 322:1 323:1 324:1 325:1 326:0 327:0 328:0 329:1 330:1 331:1 332:0 333:0 334:0 335:1 336:1 337:1 338:1 339:1 340:1 341:1 342:1 343:1 344:1 345:1 346:1 347:0 348:0 349:0 350:0 351:0 352:0 353:0 354:1 355:1 356:1 357:1 358:1 359:1 360:1 361:1 362:1 363:1 364:1 365:1 366:1 367:1 368:0 369:0 370:0 371:0 372:0 373:1 374:1 375:1 376:1 377:1 378:1 379:1 380:1 381:1 382:1 383:1 384:1 385:1 386:1 387:1 388:1 389:1 390:1 391:1 392:1 393:1 394:1 395:1 396:1 397:1 398:1 399:1 
0.4294071953144021 1.894240904498929 1.794544936690328 1.929292916288561 7.500255072257128 3.660949020306395 0.9459931759498614 5.902130913361127 8.416977462797222 0:1 1:1 2:1 3:1 4:1 5:1 6:1 7:1 8:1 9:1 10:1 11:1 12:1 13:1 14:1 15:1 16:1 17:1 18:1 19:1 20:1 21:1 22:1 23:1 24:1 25:1 26:1 27:1 28:1 29:1 30:1 31:1 32:1 33:1 34:1 35:1 36:1 37:1 38:1 39:1 40:1 41:1 42:1 43:1 44:1 45:1 46:1 47:1 48:1 49:1 50:1 51:1 52:1 53:1 54:1 55:1 56:1 57:1 58:1 59:1 60:1 61:1 62:1 63:1 64:1 65:1 66:1 67:1 68:1 69:1 70:1 71:1 72:1 73:1 74:1 75:1 76:1 77:1 78:1 79:1 80:1 81:1 82:1 83:1 84:1 85:1 86:1 87:1 88:1 89:1 90:1 91:1 92:1 93:1 94:1 95:1 96:1 97:1 98:1 99:1 100:1 101:1 102:1 103:1 104:1 105:1 106:1 107:1 108:1 109:1 110:0 111:0 112:0 113:0 114:1 115:1 116:1 117:1 118:1 119:1 120:1 121:1 122:1 123:1 124:1 125:1 126:1 127:1 128:1 129:0 130:0 131:0 132:0 133:0 134:0 135:1 136:1 137:1 138:1 139:1 140:1 141:1 142:1 143:1 144:1 145:1 146:1 147:1 148:0 149:0 150:1 151:1 152:1 153:0 154:0 155:0 156:1 157:1 158:1 159:1 160:1 161:1 162:1 163:1 164:1 165:1 166:1 167:0 168:0 169:0 170:1 171:1 172:1 173:1 174:0 175:0 176:1 177:1 178:1 179:1 180:1 181:1 182:1 183:1 184:1 185:1 186:1 187:0 188:0 189:1 190:1 191:1 192:1 193:1 194:0 195:0 196:1 197:1 198:1 199:1 200:1 201:1 202:1 203:1 204:1 205:1 206:1 207:0 208:0 209:1 210:1 211:1 212:1 213:1 214:0 215:0 216:1 217:1 218:1 219:1 220:1 221:1 222:1 223:1 224:1 225:1 226:1 227:0 228:0 229:1 230:1 231:1 232:1 233:1 234:0 235:0 236:1 237:1 238:1 239:1 240:1 241:1 242:1 243:1 244:1 245:1 246:0 247:0 248:0 249:1 250:1 251:1 252:1 253:0 254:0 255:1 256:1 257:1 258:1 259:1 260:1 261:1 262:1 263:1 264:1 265:1 266:1 267:0 268:1 269:1 270:1 271:1 272:1 273:0 274:0 275:1 276:1 277:1 278:1 279:1 280:1 281:1 282:1 283:1 284:1 285:1 286:1 287:0 288:0 289:1 290:1 291:1 292:0 293:0 294:1 295:1 296:1 297:1 298:1 299:1 300:1 301:1 302:1 303:1 304:1 305:1 306:1 307:0 308:0 309:0 310:1 311:0 312:0 313:0 314:1 315:1 316:1 317:1 318:1 319:1 320:1 321:1 322:1 323:1 324:1 325:1 326:1 327:1 328:0 329:0 330:0 331:0 332:0 333:1 334:1 335:1 336:1 337:1 338:1 339:1 340:1 341:1 342:1 343:1 344:1 345:1 346:1 347:1 348:1 349:1 350:1 351:1 352:1 353:1 354:1 355:1 356:1 357:1 358:1 359:1 360:1 361:1 362:1 363:1 364:1 365:1 366:1 367:1 368:1 369:1 370:1 371:1 372:1 373:1 374:1 375:1 376:1 377:1 378:1 379:1 380:1 381:1 382:1 383:1 384:1 385:1 386:1 387:1 388:1 389:1 390:1 391:1 392:1 393:1 394:1 395:1 396:1 397:1 398:1 399:1 
0 0.008867706535512781 0 0 0 0 0 0 0 0:1 1:1 2:1 3:1 4:1 5:1 6:1 7:1 8:1 9:1 10:1 11:1 12:1 13:1 14:1 15:1 16:1 17:1 18:1 19:1 20:1 21:1 22:1 23:1 24:1 25:1 26:1 27:1 28:1 29:1 30:1 31:1 32:1 33:1 34:1 35:1 36:1 37:1 38:1 39:1 40:1 41:1 42:1 43:1 44:1 45:1 46:1 47:1 48:1 49:1 50:1 51:1 52:1 53:1 54:1 55:1 56:1 57:1 58:1 59:1 60:1 61:1 62:1 63:1 64:1 65:1 66:1 67:1 68:1 69:1 70:0 71:0 72:1 73:1 74:1 75:1 76:1 77:1 78:1 79:1 80:1 81:1 82:1 83:1 84:1 85:1 86:1 87:0 88:0 89:0 90:0 91:0 92:0 93:1 94:1 95:1 96:1 97:1 98:1 99:1 100:1 101:1 102:1 103:1 104:1 105:1 106:0 107:0 108:0 109:1 110:1 111:0 112:0 113:0 114:1 115:1 116:1 117:1 118:1 119:1 120:1 121:1 122:1 123:1 124:1 125:1 126:0 127:0 128:1 129:1 130:1 131:1 132:0 133:0 134:0 135:1 136:1 137:1 138:1 139:1 140:1 141:1 142:1 143:1 144:1 145:0 146:0 147:1 148:1 149:1 150:1 151:1 152:1 153:0 154:0 155:1 156:1 157:1 158:1 159:1 160:1 161:1 162:1 163:1 164:1 165:0 166:0 167:1 168:1 169:1 170:1 171:1 172:1 173:1 174:0 175:0 176:1 177:1 178:1 179:1 180:1 181:1 182:1 183:1 184:1 185:0 186:0 187:1 188:1 189:1 190:1 191:1 192:1 193:1 194:0 195:0 196:1 197:1 198:1 199:1 200:1 201:1 202:1 203:1 204:1 205:0 206:0 207:1 208:1 209:1 210:1 211:1 212:1 213:1 214:1 215:0 216:0 217:1 218:1 219:1 220:1 221:1 222:1 223:1 224:1 225:0 226:0 227:1 228:1 229:1 230:1 231:1 232:1 233:1 234:1 235:0 236:0 237:1 238:1 239:1 240:1 241:1 242:1 243:1 244:1 245:1 246:0 247:0 248:1 249:1 250:1 251:1 252:1 253:1 254:1 255:0 256:0 257:1 258:1 259:1 260:1 261:1 262:1 263:1 264:1 265:1 266:0 267:0 268:1 269:1 270:1 271:1 272:1 273:1 274:1 275:0 276:0 277:1 278:1 279:1 280:1 281:1 282:1 283:1 284:1 285:1 286:1 287:0 288:0 289:1 290:1 291:1 292:1 293:1 294:1 295:0 296:0 297:1 298:1 299:1 300:1 301:1 302:1 303:1 304:1 305:1 306:1 307:0 308:0 309:0 310:1 311:1 312:1 313:1 314:1 315:0 316:0 317:1 318:1 319:1 320:1 321:1 322:1 323:1 324:1 325:1 326:1 327:1 328:0 329:0 330:0 331:1 332:1 333:1 334:0 335:0 336:1 337:1 338:1 339:1 340:1 341:1 342:1 343:1 344:1 345:1 346:1 347:1 348:1 349:0 350:0 351:0 352:0 353:0 354:0 355:1 356:1 357:1 358:1 359:1 360:1 361:1 362:1 363:1 364:1 365:1 366:1 367:1 368:1 369:1 370:1 371:0 372:0 373:0 374:1 375:1 376:1 377:1 378:1 379:1 380:1 381:1 382:1 383:1 384:1 385:1 386:1 387:1 388:1 389:1 390:1 391:1 392:1 393:1 394:1 395:1 396:1 397:1 398:1 399:1 
1.559453857277111 0.7331316005440622 0 0.4398819148722386 1.872365822688259 1.211665794423249 0.8651948926222182 0.8582784262060212 0 0:1 1:1 2:1 3:1 4:1 5:1 6:1 7:1 8:1 9:1 10:1 11:1 12:1 13:1 14:1 15:1 16:1 17:1 18:1 19:1 20:1 21:1 22:1 23:1 24:1 25:1 26:1 27:1 28:1 29:1 30:1 31:1 32:1 33:1 34:1 35:1 36:1 37:1 38:1 39:1 40:1 41:1 42:1 43:1 44:1 45:1 46:1 47:1 48:1 49:0 50:0 51:0 52:1 53:1 54:1 55:1 56:1 57:1 58:1 59:1 60:1 61:1 62:1 63:1 64:1 65:1 66:1 67:0 68:0 69:0 70:0 71:0 72:0 73:0 74:1 75:1 76:1 77:1 78:1 79:1 80:1 81:1 82:1 83:1 84:1 85:1 86:0 87:0 88:0 89:1 90:1 91:1 92:0 93:0 94:0 95:1 96:1 97:1 98:1 99:1 100:1 101:1 102:1 103:1 104:1 105:1 106:0 107:0 108:1 109:1 110:1 111:1 112:1 113:0 114:0 115:0 116:1 117:1 118:1 119:1 120:1 121:1 122:1 123:1 124:1 125:0 126:0 127:1 128:1 129:1 130:1 131:1 132:1 133:1 134:0 135:0 136:1 137:1 138:1 139:1 140:1 141:1 142:1 143:1 144:1 145:0 146:0 147:1 148:1 149:1 150:1 151:1 152:1 153:1 154:0 155:0 156:1 157:1 158:1 159:1 160:1 161:1 162:1 163:1 164:1 165:0 166:0 167:1 168:1 169:1 170:1 171:1 172:1 173:1 174:1 175:0 176:1 177:1 178:1 179:1 180:1 181:1 182:1 183:1 184:1 185:0 186:0 187:1 188:1 189:1 190:1 191:1 192:1 193:1 194:1 195:0 196:0 197:1 198:1 199:1 200:1 201:1 202:1 203:1 204:1 205:0 206:0 207:1 208:1 209:1 210:1 211:1 212:1 213:1 214:1 215:0 216:0 217:1 218:1 219:1 220:1 221:1 222:1 223:1 224:1 225:0 226:0 227:1 228:1 229:1 230:1 231:1 232:1 233:1 234:1 235:0 236:0 237:1 238:1 239:1 240:1 241:1 242:1 243:1 244:1 245:0 246:0 247:1 248:1 249:1 250:1 251:1 252:1 253:1 254:1 255:0 256:0 257:1 258:1 259:1 260:1 261:1 262:1 263:1 264:1 265:0 266:0 267:1 268:1 269:1 270:1 271:1 272:1 273:1 274:1 275:0 276:0 277:1 278:1 279:1 280:1 281:1 282:1 283:1 284:1 285:1 286:0 287:0 288:1 289:1 290:1 291:1 292:1 293:1 294:0 295:0 296:1 297:1 298:1 299:1 300:1 301:1 302:1 303:1 304:1 305:1 306:0 307:0 308:1 309:1 310:1 311:1 312:1 313:1 314:0 315:0 316:1 317:1 318:1 319:1 320:1 321:1 322:1 323:1 324:1 325:1 326:1 327:0 328:0 329:1 330:1 331:1 332:1 333:0 334:0 335:0 336:1 337:1 338:1 339:1 340:1 341:1 342:1 343:1 344:1 345:1 346:1 347:0 348:0 349:0 350:0 351:0 352:0 353:0 354:0 355:1 356:1 357:1 358:1 359:1 360:1 361:1 362:1 363:1 364:1 365:1 366:1 367:1 368:1 369:0 370:0 371:0 372:0 373:0 374:1 375:1 376:1 377:1 378:1 379:1 380:1 381:1 382:1 383:1 384:1 385:1 386:1 387:1 388:1 389:1 390:1 391:1 392:1 393:1 394:1 395:1 396:1 397:1 398:1 399:1 
0 0 0 0.4256842843963559 0 2.600656620058391 0 0.8026386803418241 0 0:1 1:1 2:1 3:1 4:1 5:1 6:1 7:1 8:1 9:1 10:1 11:1 12:1 13:1 14:1 15:1 16:1 17:1 18:1 19:1 20:1 21:1 22:1 23:1 24:1 25:1 26:1 27:1 28:1 29:1 30:1 31:1 32:1 33:1 34:1 35:1 36:1 37:1 38:1 39:1 40:1 41:1 42:1 43:1 44:1 45:1 46:1 47:1 48:1 49:0 50:0 51:0 52:0 53:0 54:1 55:1 56:1 57:1 58:1 59:1 60:1 61:1 62:1 63:1 64:1 65:1 66:1 67:1 68:0 69:0 70:0 71:0 72:0 73:0 74:0 75:1 76:1 77:1 78:1 79:1 80:1 81:1 82:1 83:1 84:1 85:1 86:1 87:0 88:0 89:1 90:1 91:1 92:1 93:0 94:0 95:0 96:1 97:1 98:1 99:1 100:1 101:1 102:1 103:1 104:1 105:1 106:0 107:0 108:1 109:1 110:1 111:1 112:1 113:1 114:0 115:0 116:1 117:1 118:1 119:1 120:1 121:1 122:1 123:1 124:1 125:1 126:0 127:0 128:1 129:1 130:1 131:1 132:1 133:1 134:1 135:0 136:0 137:1 138:1 139:1 140:1 141:1 142:1 143:1 144:1 145:0 146:0 147:1 148:1 149:1 150:1 151:1 152:1 153:1 154:1 155:0 156:0 157:1 158:1 159:1 160:1 161:1 162:1 163:1 164:1 165:0 166:0 167:1 168:1 169:1 170:1 171:1 172:1 173:1 174:1 175:0 176:0 177:1 178:1 179:1 180:1 181:1 182:1 183:1 184:1 185:0 186:0 187:1 188:1 189:1 190:1 191:1 192:1 193:1 194:1 195:0 196:0 197:1 198:1 199:1 200:1 201:1 202:1 203:1 204:1 205:0 206:0 207:1 208:1 209:1 210:1 211:1 212:1 213:1 214:1 215:0 216:0 217:1 218:1 219:1 220:1 221:1 222:1 223:1 224:1 225:0 226:0 227:1 228:1 229:1 230:1 231:1 232:1 233:1 234:1 235:0 236:0 237:1 238:1 239:1 240:1 241:1 242:1 243:1 244:1 245:0 246:0 247:1 248:1 249:1 250:1 251:1 252:1 253:1 254:0 255:0 256:1 257:1 258:1 259:1 260:1 261:1 262:1 263:1 264:1 265:0 266:0 267:1 268:1 269:1 270:1 271:1 272:1 273:1 274:0 275:0 276:1 277:1 278:1 279:1 280:1 281:1 282:1 283:1 284:1 285:0 286:0 287:0 288:1 289:1 290:1 291:1 292:1 293:1 294:0 295:0 296:1 297:1 298:1 299:1 300:1 301:1 302:1 303:1 304:1 305:1 306:0 307:0 308:1 309:1 310:1 311:1 312:1 313:0 314:0 315:1 316:1 317:1 318:1 319:1 320:1 321:1 322:1 323:1 324:1 325:1 326:0 327:0 328:0 329:1 330:1 331:1 332:0 333:0 334:0 335:1 336:1 337:1 338:1 339:1 340:1 341:1 342:1 343:1 344:1 345:1 346:1 347:0 348:0 349:0 350:0 351:0 352:0 353:0 354:1 355:1 356:1 357:1 358:1 359:1 360:1 361:1 362:1 363:1 364:1 365:1 366:1 367:1 368:1 369:0 370:0 371:0 372:0 373:1 374:1 375:1 376:1 377:1 378:1 379:1 380:1 381:1 382:1 383:1 384:1 385:1 386:1 387:1 388:1 389:1 390:1 391:1 392:1 393:1 394:1 395:1 396:1 397:1 398:1 399:1 
0 0 0 0 0.03052694221959982 0 0 1.796036527593072 0 0:1 1:1 2:1 3:1 4:1 5:1 6:1 7:1 8:1 9:1 10:1 11:1 12:1 13:1 14:1 15:1 16:1 17:1 18:1 19:1 20:1 21:1 22:1 23:1 24:1 25:1 26:1 27:1 28:1 29:1 30:1 31:1 32:1 33:1 34:1 35:1 36:1 37:1 38:1 39:1 40:1 41:1 42:1 43:1 44:1 45:1 46:1 47:1 48:1 49:1 50:1 51:1 52:1 53:1 54:1 55:1 56:1 57:1 58:1 59:1 60:1 61:1 62:1 63:1 64:1 65:1 66:1 67:1 68:1 69:1 70:1 71:0 72:1 73:1 74:1 75:1 76:1 77:1 78:1 79:1 80:1 81:1 82:1 83:1 84:1 85:1 86:1 87:1 88:1 89:0 90:0 91:0 92:0 93:0 94:0 95:1 96:1 97:1 98:1 99:1 100:1 101:1 102:1 103:1 104:1 105:1 106:1 107:1 108:0 109:0 110:0 111:0 112:0 113:0 114:0 115:0 116:1 117:1 118:1 119:1 120:1 121:1 122:1 123:1 124:1 125:1 126:1 127:0 128:0 129:0 130:1 131:1 132:1 133:1 134:0 135:0 136:1 137:1 138:1 139:1 140:1 141:1 142:1 143:1 144:1 145:1 146:0 147:0 148:0 149:1 150:1 151:1 152:1 153:1 154:0 155:0 156:0 157:1 158:1 159:1 160:1 161:1 162:1 163:1 164:1 165:1 166:0 167:0 168:1 169:1 170:1 171:1 172:1 173:1 174:1 175:0 176:0 177:1 178:1 179:1 180:1 181:1 182:1 183:1 184:1 185:1 186:0 187:0 188:1 189:1 190:1 191:1 192:1 193:1 194:1 195:0 196:0 197:1 198:1 199:1 200:1 201:1 202:1 203:1 204:1 205:1 206:0 207:0 208:1 209:1 210:1 211:1 212:1 213:1 214:1 215:0 216:0 217:1 218:1 219:1 220:1 221:1 222:1 223:1 224:1 225:0 226:0 227:1 228:1 229:1 230:1 231:1 232:1 233:1 234:0 235:0 236:0 237:1 238:1 239:1 240:1 241:1 242:1 243:1 244:1 245:0 246:0 247:1 248:1 249:1 250:1 251:1 252:1 253:1 254:0 255:0 256:1 257:1 258:1 259:1 260:1 261:1 262:1 263:1 264:1 265:0 266:0 267:0 268:1 269:1 270:1 271:1 272:1 273:1 274:0 275:0 276:1 277:1 278:1 279:1 280:1 281:1 282:1 283:1 284:1 285:1 286:0 287:0 288:1 289:1 290:1 291:1 292:1 293:0 294:0 295:1 296:1 297:1 298:1 299:1 300:1 301:1 302:1 303:1 304:1 305:1 306:0 307:0 308:1 309:1 310:1 311:1 312:1 313:0 314:0 315:1 316:1 317:1 318:1 319:1 320:1 321:1 322:1 323:1 324:1 325:1 326:0 327:0 328:0 329:0 330:0 331:0 332:0 333:0 334:1 335:1 336:1 337:1 338:1 339:1 340:1 341:1 342:1 343:1 344:1 345:1 346:1 347:1 348:0 349:0 350:0 351:0 352:0 353:1 354:1 355:1 356:1 357:1 358:1 359:1 360:1 361:1 362:1 363:1 364:1 365:1 366:1 367:1 368:1 369:1 370:1 371:1 372:1 373:1 374:1 375:1 376:1 377:1 378:1 379:1 380:1 381:1 382:1 383:1 384:1 385:1 386:1 387:1 388:1 389:1 390:1 391:1 392:1 393:1 394:1 395:1 396:1 397:1 398:1 399:1 
0 0 1.191772422229787 0 1.913519996360332 0 1.906330707022334 0 0.05471659808429596 0:1 1:1 2:1 3:1 4:1 5:1 6:1 7:1 8:1 9:1 10:1 11:1 12:1 13:1 14:1 15:1 16:1 17:1 18:1 19:1 20:1 21:1 22:1 23:1 24:1 25:1 26:1 27:1 28:1 29:1 30:1 31:1 32:1 33:1 34:1 35:1 36:1 37:1 38:1 39:1 40:1 41:1 42:1 43:1 44:1 45:1 46:1 47:1 48:1 49:1 50:1 51:1 52:1 53:1 54:1 55:1 56:1 57:1 58:1 59:1 60:1 61:1 62:1 63:1 64:1 65:1 66:1 67:1 68:1 69:1 70:1 71:0 72:1 73:1 74:1 75:1 76:1 77:1 78:1 79:1 80:1 81:1 82:1 83:1 84:1 85:1 86:1 87:1 88:0 89:0 90:0 91:0 92:0 93:0 94:0 95:1 96:1 97:1 98:1 99:1 100:1 101:1 102:1 103:1 104:1 105:1 106:1 107:1 108:0 109:0 110:0 111:1 112:0 113:0 114:0 115:1 116:1 117:1 118:1 119:1 120:1 121:1 122:1 123:1 124:1 125:1 126:1 127:0 128:0 129:1 130:1 131:1 132:1 133:1 134:0 135:0 136:1 137:1 138:1 139:1 140:1 141:1 142:1 143:1 144:1 145:1 146:0 147:0 148:1 149:1 150:1 151:1 152:1 153:1 154:0 155:0 156:1 157:1 158:1 159:1 160:1 161:1 162:1 163:1 164:1 165:1 166:0 167:0 168:1 169:1 170:1 171:1 172:1 173:1 174:0 175:0 176:1 177:1 178:1 179:1 180:1 181:1 182:1 183:1 184:1 185:1 186:0 187:0 188:1 189:1 190:1 191:1 192:1 193:1 194:0 195:0 196:1 197:1 198:1 199:1 200:1 201:1 202:1 203:1 204:1 205:1 206:0 207:1 208:1 209:1 210:1 211:1 212:1 213:1 214:0 215:0 216:1 217:1 218:1 219:1 220:1 221:1 222:1 223:1 224:1 225:1 226:0 227:1 228:1 229:1 230:1 231:1 232:1 233:1 234:0 235:0 236:1 237:1 238:1 239:1 240:1 241:1 242:1 243:1 244:1 245:1 246:0 247:1 248:1 249:1 250:1 251:1 252:1 253:1 254:0 255:0 256:1 257:1 258:1 259:1 260:1 261:1 262:1 263:1 264:1 265:1 266:0 267:1 268:1 269:1 270:1 271:1 272:1 273:1 274:0 275:0 276:1 277:1 278:1 279:1 280:1 281:1 282:1 283:1 284:1 285:1 286:0 287:0 288:1 289:1 290:1 291:1 292:1 293:1 294:0 295:0 296:1 297:1 298:1 299:1 300:1 301:1 302:1 303:1 304:1 305:1 306:0 307:0 308:1 309:1 310:1 311:1 312:1 313:0 314:0 315:1 316:1 317:1 318:1 319:1 320:1 321:1 322:1 323:1 324:1 325:1 326:0 327:0 328:1 329:1 330:1 331:1 332:1 333:0 334:0 335:1 336:1 337:1 338:1 339:1 340:1 341:1 342:1 343:1 344:1 345:1 346:1 347:0 348:0 349:0 350:0 351:0 352:0 353:0 354:0 355:1 356:1 357:1 358:1 359:1 360:1 361:1 362:1 363:1 364:1 365:1 366:1 367:1 368:0 369:0 370:0 371:0 372:0 373:1 374:1 375:1 376:1 377:1 378:1 379:1 380:1 381:1 382:1 383:1 384:1 385:1 386:1 387:1 388:1 389:1 390:1 391:1 392:1 393:1 394:1 395:1 396:1 397:1 398:1 399:1 
0 0 0 0 0 1.537092126102509 0 0 0 0:1 1:1 2:1 3:1 4:1 5:1 6:1 7:1 8:1 9:1 10:1 11:1 12:1 13:1 14:1 15:1 16:1 17:1 18:1 19:1 20:1 21:1 22:1 23:1 24:1 25:1 26:1 27:1 28:1 29:1 30:1 31:1 32:1 33:1 34:1 35:1 36:1 37:1 38:1 39:1 40:1 41:1 42:1 43:1 44:1 45:1 46:1 47:1 48:1 49:1 50:1 51:1 52:1 53:1 54:1 55:1 56:1 57:1 58:1 59:1 60:1 61:1 62:1 63:1 64:1 65:1 66:1 67:1 68:1 69:1 70:1 71:1 72:1 73:1 74:1 75:1 76:1 77:1 78:1 79:1 80:1 81:1 82:1 83:1 84:1 85:1 86:1 87:1 88:1 89:0 90:0 91:0 92:1 93:1 94:1 95:1 96:1 97:1 98:1 99:1 100:1 101:1 102:1 103:1 104:1 105:1 106:0 107:0 108:0 109:0 110:0 111:0 112:0 113:1 114:1 115:1 116:1 117:1 118:1 119:1 120:1 121:1 122:1 123:1 124:1 125:1 126:0 127:0 128:0 129:1 130:1 131:1 132:0 133:0 134:1 135:1 136:1 137:1 138:1 139:1 140:1 141:1 142:1 143:1 144:1 145:1 146:0 147:0 148:1 149:1 150:1 151:1 152:1 153:0 154:0 155:1 156:1 157:1 158:1 159:1 160:1 161:1 162:1 163:1 164:1 165:0 166:0 167:1 168:1 169:1 170:1 171:1 172:1 173:0 174:0 175:1 176:1 177:1 178:1 179:1 180:1 181:1 182:1 183:1 184:1 185:0 186:0 187:1 188:1 189:1 190:1 191:1 192:1 193:0 194:0 195:0 196:1 197:1 198:1 199:1 200:1 201:1 202:1 203:1 204:1 205:0 206:0 207:1 208:1 209:1 210:1 211:1 212:1 213:1 214:0 215:0 216:1 217:1 218:1 219:1 220:1 221:1 222:1 223:1 224:1 225:0 226:0 227:1 228:1 229:1 230:1 231:1 232:1 233:1 234:0 235:0 236:1 237:1 238:1 239:1 240:1 241:1 242:1 243:1 244:1 245:0 246:0 247:1 248:1 249:1 250:1 251:1 252:1 253:1 254:0 255:0 256:1 257:1 258:1 259:1 260:1 261:1 262:1 263:1 264:1 265:0 266:0 267:1 268:1 269:1 270:1 271:1 272:1 273:1 274:0 275:0 276:1 277:1 278:1 279:1 280:1 281:1 282:1 283:1 284:1 285:1 286:0 287:0 288:1 289:1 290:1 291:1 292:1 293:0 294:0 295:1 296:1 297:1 298:1 299:1 300:1 301:1 302:1 303:1 304:1 305:1 306:0 307:0 308:0 309:1 310:1 311:1 312:1 313:0 314:0 315:1 316:1 317:1 318:1 319:1 320:1 321:1 322:1 323:1 324:1 325:1 326:0 327:0 328:0 329:0 330:0 331:0 332:0 333:0 334:1 335:1 336:1 337:1 338:1 339:1 340:1 341:1 342:1 343:1 344:1 345:1 346:1 347:1 348:0 349:0 350:0 351:0 352:0 353:1 354:1 355:1 356:1 357:1 358:1 359:1 360:1 361:1 362:1 363:1 364:1 365:1 366:1 367:1 368:1 369:1 370:1 371:1 372:1 373:1 374:1 375:1 376:1 377:1 378:1 379:1 380:1 381:1 382:1 383:1 384:1 385:1 386:1 387:1 388:1 389:1 390:1 391:1 392:1 393:1 394:1 395:1 396:1 397:1 398:1 399:1 
3.598867305046474 3.731559329510395 2.673361069418713 2.323684155966317 1.962865117389776 0 4.499504582101666 0 12.67186243502973 0:1 1:1 2:1 3:1 4:1 5:1 6:1 7:1 8:1 9:1 10:1 11:1 12:1 13:1 14:1 15:1 16:1 17:1 18:1 19:1 20:1 21:1 22:1 23:1 24:1 25:1 26:1 27:1 28:1 29:1 30:1 31:1 32:1 33:1 34:1 35:1 36:1 37:1 38:1 39:1 40:1 41:1 42:1 43:1 44:1 45:1 46:1 47:1 48:1 49:1 50:1 51:1 52:1 53:1 54:1 55:1 56:1 57:1 58:1 59:1 60:1 61:1 62:1 63:1 64:1 65:1 66:1 67:1 68:1 69:1 70:1 71:1 72:1 73:1 74:1 75:1 76:1 77:1 78:1 79:1 80:1 81:1 82:1 83:1 84:1 85:1 86:1 87:1 88:1 89:0 90:0 91:0 92:1 93:1 94:1 95:1 96:1 97:1 98:1 99:1 100:1 101:1 102:1 103:1 104:1 105:1 106:1 107:0 108:0 109:0 110:0 111:0 112:0 113:0 114:1 115:1 116:1 117:1 118:1 119:1 120:1 121:1 122:1 123:1 124:1 125:1 126:1 127:0 128:0 129:1 130:1 131:1 132:0 133:0 134:0 135:1 136:1 137:1 138:1 139:1 140:1 141:1 142:1 143:1 144:1 145:1 146:1 147:0 148:0 149:1 150:1 151:1 152:1 153:0 154:0 155:1 156:1 157:1 158:1 159:1 160:1 161:1 162:1 163:1 164:1 165:1 166:0 167:0 168:1 169:1 170:1 171:1 172:1 173:0 174:0 175:0 176:1 177:1 178:1 179:1 180:1 181:1 182:1 183:1 184:1 185:1 186:1 187:0 188:1 189:1 190:1 191:1 192:1 193:1 194:0 195:0 196:1 197:1 198:1 199:1 200:1 201:1 202:1 203:1 204:1 205:1 206:1 207:0 208:0 209:1 210:1 211:1 212:1 213:1 214:0 215:0 216:1 217:1 218:1 219:1 220:1 221:1 222:1 223:1 224:1 225:1 226:1 227:0 228:0 229:1 230:1 231:1 232:1 233:1 234:0 235:0 236:1 237:1 238:1 239:1 240:1 241:1 242:1 243:1 244:1 245:1 246:1 247:1 248:0 249:0 250:1 251:1 252:1 253:1 254:0 255:0 256:1 257:1 258:1 259:1 260:1 261:1 262:1 263:1 264:1 265:1 266:1 267:1 268:0 269:0 270:0 271:1 272:1 273:1 274:0 275:0 276:1 277:1 278:1 279:1 280:1 281:1 282:1 283:1 284:1 285:1 286:1 287:1 288:1 289:0 290:0 291:0 292:1 293:0 294:0 295:0 296:1 297:1 298:1 299:1 300:1 301:1 302:1 303:1 304:1 305:1 306:1 307:1 308:1 309:1 310:0 311:0 312:0 313:0 314:0 315:1 316:1 317:1 318:1 319:1 320:1 321:1 322:1 323:1 324:1 325:1 326:1 327:1 328:1 329:1 330:1 331:1 332:0 333:1 334:1 335:1 336:1 337:1 338:1 339:1 340:1 341:1 342:1 343:1 344:1 345:1 346:1 347:1 348:1 349:1 350:1 351:1 352:1 353:1 354:1 355:1 356:1 357:1 358:1 359:1 360:1 361:1 362:1 363:1 364:1 365:1 366:1 367:1 368:1 369:1 370:1 371:1 372:1 373:1 374:1 375:1 376:1 377:1 378:1 379:1 380:1 381:1 382:1 383:1 384:1 385:1 386:1 387:1 388:1 389:1 390:1 391:1 392:1 393:1 394:1 395:1 396:1 397:1 398:1 399:1 
1.977038321824526 0 0.1494958985221256 2.749219125709677 0 1.507515322311626 0 0 0 0:1 1:1 2:1 3:1 4:1 5:1 6:1 7:1 8:1 9:1 10:1 11:1 12:1 13:1 14:1 15:1 16:1 17:1 18:1 19:1 20:1 21:1 22:1 23:1 24:1 25:1 26:1 27:1 28:1 29:1 30:1 31:1 32:1 33:1 34:1 35:1 36:1 37:1 38:1 39:1 40:1 41:1 42:1 43:1 44:1 45:1 46:1 47:1 48:1 49:1 50:1 51:1 52:1 53:1 54:1 55:1 56:1 57:1 58:1 59:1 60:1 61:1 62:1 63:1 64:1 65:1 66:1 67:1 68:1 69:1 70:1 71:1 72:1 73:1 74:1 75:1 76:1 77:1 78:1 79:1 80:1 81:1 82:1 83:1 84:1 85:1 86:1 87:1 88:1 89:1 90:1 91:1 92:1 93:1 94:1 95:1 96:1 97:1 98:1 99:1 100:1 101:1 102:1 103:1 104:1 105:1 106:1 107:1 108:1 109:1 110:0 111:0 112:0 113:0 114:1 115:1 116:1 117:1 118:1 119:1 120:1 121:1 122:1 123:1 124:1 125:1 126:1 127:1 128:1 129:0 130:0 131:0 132:0 133:0 134:0 135:1 136:1 137:1 138:1 139:1 140:1 141:1 142:1 143:1 144:1 145:1 146:1 147:1 148:0 149:0 150:0 151:1 152:1 153:0 154:0 155:0 156:1 157:1 158:1 159:1 160:1 161:1 162:1 163:1 164:1 165:1 166:1 167:0 168:0 169:1 170:1 171:1 172:1 173:1 174:0 175:0 176:1 177:1 178:1 179:1 180:1 181:1 182:1 183:1 184:1 185:1 186:1 187:0 188:0 189:1 190:1 191:1 192:1 193:1 194:0 195:0 196:1 197:1 198:1 199:1 200:1 201:1 202:1 203:1 204:1 205:1 206:1 207:0 208:0 209:1 210:1 211:1 212:1 213:1 214:0 215:0 216:1 217:1 218:1 219:1 220:1 221:1 222:1 223:1 224:1 225:1 226:1 227:0 228:1 229:1 230:1 231:1 232:1 233:1 234:0 235:0 236:1 237:1 238:1 239:1 240:1 241:1 242:1 243:1 244:1 245:1 246:0 247:0 248:1 249:1 250:1 251:1 252:1 253:0 254:0 255:1 256:1 257:1 258:1 259:1 260:1 261:1 262:1 263:1 264:1 265:1 266:1 267:0 268:0 269:1 270:1 271:1 272:1 273:0 274:0 275:1 276:1 277:1 278:1 279:1 280:1 281:1 282:1 283:1 284:1 285:1 286:1 287:0 288:0 289:0 290:1 291:0 292:0 293:0 294:1 295:1 296:1 297:1 298:1 299:1 300:1 301:1 302:1 303:1 304:1 305:1 306:1 307:0 308:0 309:0 310:0 311:0 312:0 313:0 314:1 315:1 316:1 317:1 318:1 319:1 320:1 321:1 322:1 323:1 324:1 325:1 326:1 327:1 328:1 329:0 330:0 331:0 332:1 333:1 334:1 335:1 336:1 337:1 338:1 339:1 340:1 341:1 342:1 343:1 344:1 345:1 346:1 347:1 348:1 349:1 350:1 351:1 352:1 353:1 354:1 355:1 356:1 357:1 358:1 359:1 360:1 361:1 362:1 363:1 364:1 365:1 366:1 367:1 368:1 369:1 370:1 371:1 372:1 373:1 374:1 375:1 376:1 377:1 378:1 379:1 380:1 381:1 382:1 383:1 384:1 385:1 386:1 387:1 388:1 389:1 390:1 391:1 392:1 393:1 394:1 395:1 396:1 397:1 398:1 399:1 
0 0 0 0 1.091114387095634 1.105168658668308 0 0.1454065314550641 0 0:1 1:1 2:1 3:1 4:1 5:1 6:1 7:1 8:1 9:1 10:1 11:1 12:1 13:1 14:1 15:1 16:1 17:1 18:1 19:1 20:1 21:1 22:1 23:1 24:1 25:1 26:1 27:1 28:1 29:1 30:1 31:1 32:1 33:1 34:1 35:1 36:1 37:1 38:1 39:1 40:1 41:1 42:1 43:1 44:1 45:1 46:1 47:1 48:1 49:1 50:1 51:1 52:1 53:1 54:1 55:1 56:1 57:1 58:1 59:1 60:1 61:1 62:1 63:1 64:1 65:1 66:1 67:1 68:1 69:0 70:0 71:0 72:0 73:0 74:1 75:1 76:1 77:1 78:1 79:1 80:1 81:1 82:1 83:1 84:1 85:1 86:1 87:1 88:0 89:0 90:0 91:0 92:0 93:0 94:0 95:0 96:1 97:1 98:1 99:1 100:1 101:1 102:1 103:1 104:1 105:1 106:1 107:0 108:0 109:1 110:1 111:1 112:1 113:1 114:0 115:0 116:1 117:1 118:1 119:1 120:1 121:1 122:1 123:1 124:1 125:1 126:1 127:0 128:0 129:1 130:1 131:1 132:1 133:1 134:1 135:0 136:0 137:1 138:1 139:1 140:1 141:1 142:1 143:1 144:1 145:1 146:0 147:0 148:0 149:1 150:1 151:1 152:1 153:1 154:1 155:0 156:0 157:1 158:1 159:1 160:1 161:1 162:1 163:1 164:1 165:1 166:0 167:0 168:1 169:1 170:1 171:1 172:1 173:1 174:1 175:0 176:0 177:1 178:1 179:1 180:1 181:1 182:1 183:1 184:1 185:1 186:0 187:0 188:1 189:1 190:1 191:1 192:1 193:1 194:1 195:0 196:0 197:1 198:1 199:1 200:1 201:1 202:1 203:1 204:1 205:1 206:0 207:1 208:1 209:1 210:1 211:1 212:1 213:1 214:1 215:0 216:0 217:1 218:1 219:1 220:1 221:1 222:1 223:1 224:1 225:0 226:0 227:1 228:1 229:1 230:1 231:1 232:1 233:1 234:0 235:0 236:1 237:1 238:1 239:1 240:1 241:1 242:1 243:1 244:1 245:0 246:0 247:1 248:1 249:1 250:1 251:1 252:1 253:1 254:0 255:0 256:1 257:1 258:1 259:1 260:1 261:1 262:1 263:1 264:1 265:1 266:0 267:1 268:1 269:1 270:1 271:1 272:1 273:1 274:0 275:0 276:1 277:1 278:1 279:1 280:1 281:1 282:1 283:1 284:1 285:1 286:0 287:0 288:1 289:1 290:1 291:1 292:1 293:0 294:0 295:1 296:1 297:1 298:1 299:1 300:1 301:1 302:1 303:1 304:1 305:1 306:0 307:0 308:1 309:1 310:1 311:1 312:1 313:0 314:0 315:1 316:1 317:1 318:1 319:1 320:1 321:1 322:1 323:1 324:1 325:1 326:1 327:0 328:0 329:0 330:1 331:0 332:0 333:0 334:1 335:1 336:1 337:1 338:1 339:1 340:1 341:1 342:1 343:1 344:1 345:1 346:1 347:0 348:0 349:0 350:0 351:0 352:0 353:1 354:1 355:1 356:1 357:1 358:1 359:1 360:1 361:1 362:1 363:1 364:1 365:1 366:1 367:1 368:1 369:1 370:1 371:1 372:1 373:1 374:1 375:1 376:1 377:1 378:1 379:1 380:1 381:1 382:1 383:1 384:1 385:1 386:1 387:1 388:1 389:1 390:1 391:1 392:1 393:1 394:1 395:1 396:1 397:1 398:1 399:1 
4.448103545594101 6.448518132542819 6.772453132621569 1.441603089648588 1.07614846284113 0 6.881227689522089 2.38144432491017 9.354649822724724 0:1 1:1 2:1 3:1 4:1 5:1 6:1 7:1 8:1 9:1 10:1 11:1 12:1 13:1 14:1 15:1 16:1 17:1 18:1 19:1 20:1 21:1 22:1 23:1 24:1 25:1 26:1 27:1 28:1 29:1 30:1 31:1 32:1 33:1 34:1 35:1 36:1 37:1 38:1 39:1 40:1 41:1 42:1 43:1 44:1 45:1 46:1 47:1 48:1 49:1 50:1 51:1 52:1 53:1 54:1 55:1 56:1 57:1 58:1 59:1 60:1 61:1 62:1 63:1 64:1 65:1 66:1 67:1 68:1 69:1 70:1 71:1 72:1 73:1 74:1 75:1 76:1 77:1 78:1 79:1 80:1 81:1 82:1 83:1 84:1 85:1 86:1 87:1 88:1 89:0 90:0 91:0 92:0 93:1 94:1 95:1 96:1 97:1 98:1 99:1 100:1 101:1 102:1 103:1 104:1 105:1 106:1 107:1 108:0 109:0 110:0 111:0 112:0 113:0 114:0 115:1 116:1 117:1 118:1 119:1 120:1 121:1 122:1 123:1 124:1 125:1 126:1 127:0 128:0 129:0 130:1 131:1 132:1 133:0 134:0 135:1 136:1 137:1 138:1 139:1 140:1 141:1 142:1 143:1 144:1 145:1 146:1 147:0 148:0 149:1 150:1 151:1 152:1 153:0 154:0 155:1 156:1 157:1 158:1 159:1 160:1 161:1 162:1 163:1 164:1 165:1 166:0 167:0 168:1 169:1 170:1 171:1 172:1 173:1 174:0 175:1 176:1 177:1 178:1 179:1 180:1 181:1 182:1 183:1 184:1 185:1 186:0 187:0 188:1 189:1 190:1 191:1 192:1 193:0 194:0 195:1 196:1 197:1 198:1 199:1 200:1 201:1 202:1 203:1 204:1 205:1 206:0 207:0 208:1 209:1 210:1 211:1 212:1 213:0 214:0 215:1 216:1 217:1 218:1 219:1 220:1 221:1 222:1 223:1 224:1 225:1 226:0 227:1 228:1 229:1 230:1 231:1 232:1 233:0 234:0 235:1 236:1 237:1 238:1 239:1 240:1 241:1 242:1 243:1 244:1 245:1 246:0 247:1 248:1 249:1 250:1 251:1 252:0 253:0 254:1 255:1 256:1 257:1 258:1 259:1 260:1 261:1 262:1 263:1 264:1 265:1 266:0 267:0 268:1 269:1 270:1 271:1 272:0 273:0 274:1 275:1 276:1 277:1 278:1 279:1 280:1 281:1 282:1 283:1 284:1 285:1 286:0 287:0 288:0 289:1 290:0 291:0 292:0 293:1 294:1 295:1 296:1 297:1 298:1 299:1 300:1 301:1 302:1 303:1 304:1 305:1 306:1 307:0 308:0 309:0 310:0 311:0 312:0 313:1 314:1 315:1 316:1 317:1 318:1 319:1 320:1 321:1 322:1 323:1 324:1 325:1 326:1 327:1 328:0 329:0 330:0 331:1 332:1 333:1 334:1 335:1 336:1 337:1 338:1 339:1 340:1 341:1 342:1 343:1 344:1 345:1 346:1 347:1 348:1 349:1 350:1 351:1 352:1 353:1 354:1 355:1 356:1 357:1 358:1 359:1 360:1 361:1 362:1 363:1 364:1 365:1 366:1 367:1 368:1 369:1 370:1 371:1 372:1 373:1 374:1 375:1 376:1 377:1 378:1 379:1 380:1 381:1 382:1 383:1 384:1 385:1 386:1 387:1 388:1 389:1 390:1 391:1 392:1 393:1 394:1 395:1 396:1 397:1 398:1 399:1 
0 0 0 2.190173139542264 1.983005864947089 0 0 0 0 0:1 1:1 2:1 3:1 4:1 5:1 6:1 7:1 8:1 9:1 10:1 11:1 12:1 13:1 14:1 15:1 16:1 17:1 18:1 19:1 20:1 21:1 22:1 23:1 24:1 25:1 26:1 27:1 28:1 29:1 30:1 31:1 32:1 33:1 34:1 35:1 36:1 37:1 38:1 39:1 40:1 41:1 42:1 43:1 44:1 45:1 46:1 47:1 48:1 49:1 50:1 51:1 52:1 53:1 54:1 55:1 56:1 57:1 58:1 59:1 60:1 61:1 62:1 63:1 64:1 65:1 66:1 67:1 68:1 69:1 70:1 71:1 72:1 73:1 74:1 75:1 76:1 77:1 78:1 79:1 80:1 81:1 82:1 83:1 84:1 85:1 86:1 87:1 88:1 89:1 90:1 91:1 92:1 93:1 94:1 95:1 96:1 97:1 98:1 99:1 100:1 101:1 102:1 103:1 104:1 105:1 106:1 107:1 108:1 109:1 110:0 111:0 112:0 113:1 114:1 115:1 116:1 117:1 118:1 119:1 120:1 121:1 122:1 123:1 124:1 125:1 126:1 127:1 128:0 129:0 130:0 131:0 132:0 133:0 134:1 135:1 136:1 137:1 138:1 139:1 140:1 141:1 142:1 143:1 144:1 145:1 146:1 147:0 148:0 149:0 150:0 151:1 152:0 153:0 154:0 155:1 156:1 157:1 158:1 159:1 160:1 161:1 162:1 163:1 164:1 165:1 166:1 167:0 168:0 169:1 170:1 171:1 172:1 173:0 174:0 175:0 176:1 177:1 178:1 179:1 180:1 181:1 182:1 183:1 184:1 185:1 186:0 187:0 188:0 189:1 190:1 191:1 192:1 193:0 194:0 195:0 196:1 197:1 198:1 199:1 200:1 201:1 202:1 203:1 204:1 205:1 206:0 207:0 208:1 209:1 210:1 211:1 212:1 213:0 214:0 215:0 216:1 217:1 218:1 219:1 220:1 221:1 222:1 223:1 224:1 225:1 226:0 227:0 228:1 229:1 230:1 231:1 232:1 233:0 234:0 235:1 236:1 237:1 238:1 239:1 240:1 241:1 242:1 243:1 244:1 245:1 246:0 247:0 248:1 249:1 250:1 251:1 252:0 253:0 254:0 255:1 256:1 257:1 258:1 259:1 260:1 261:1 262:1 263:1 264:1 265:1 266:0 267:0 268:1 269:1 270:1 271:1 272:0 273:0 274:1 275:1 276:1 277:1 278:1 279:1 280:1 281:1 282:1 283:1 284:1 285:1 286:0 287:0 288:0 289:1 290:1 291:0 292:0 293:0 294:1 295:1 296:1 297:1 298:1 299:1 300:1 301:1 302:1 303:1 304:1 305:1 306:0 307:0 308:0 309:0 310:0 311:0 312:0 313:1 314:1 315:1 316:1 317:1 318:1 319:1 320:1 321:1 322:1 323:1 324:1 325:1 326:1 327:1 328:0 329:0 330:0 331:0 332:1 333:1 334:1 335:1 336:1 337:1 338:1 339:1 340:1 341:1 342:1 343:1 344:1 345:1 346:1 347:1 348:1 349:1 350:1 351:1 352:1 353:1 354:1 355:1 356:1 357:1 358:1 359:1 360:1 361:1 362:1 363:1 364:1 365:1 366:1 367:1 368:1 369:1 370:1 371:1 372:1 373:1 374:1 375:1 376:1 377:1 378:1 379:1 380:1 381:1 382:1 383:1 384:1 385:1 386:1 387:1 388:1 389:1 390:1 391:1 392:1 393:1 394:1 395:1 396:1 397:1 398:1 399:1 
0.7884041466104477 1.24717181900231 1.739763408265817 1.401897880961498 1.944697866057659 0 1.441754461899221 0 1.431144719667074 0:1 1:1 2:1 3:1 4:1 5:1 6:1 7:1 8:1 9:1 10:1 11:1 12:1 13:1 14:1 15:1 16:1 17:1 18:1 19:1 20:1 21:1 22:1 23:1 24:1 25:1 26:1 27:1 28:1 29:1 30:1 31:1 32:1 33:1 34:1 35:1 36:1 37:1 38:1 39:1 40:1 41:1 42:1 43:1 44:1 45:1 46:1 47:1 48:1 49:0 50:0 51:0 52:0 53:1 54:1 55:1 56:1 57:1 58:1 59:1 60:1 61:1 62:1 63:1 64:1 65:1 66:1 67:0 68:0 69:0 70:0 71:0 72:0 73:0 74:0 75:1 76:1 77:1 78:1 79:1 80:1 81:1 82:1 83:1 84:1 85:1 86:0 87:0 88:0 89:1 90:1 91:1 92:1 93:0 94:0 95:0 96:1 97:1 98:1 99:1 100:1 101:1 102:1 103:1 104:1 105:1 106:0 107:0 108:1 109:1 110:1 111:1 112:1 113:1 114:0 115:0 116:1 117:1 118:1 119:1 120:1 121:1 122:1 123:1 124:1 125:1 126:0 127:1 128:1 129:1 130:1 131:1 132:1 133:1 134:0 135:0 136:1 137:1 138:1 139:1 140:1 141:1 142:1 143:1 144:1 145:0 146:0 147:1 148:1 149:1 150:1 151:1 152:1 153:1 154:1 155:0 156:0 157:1 158:1 159:1 160:1 161:1 162:1 163:1 164:1 165:0 166:0 167:1 168:1 169:1 170:1 171:1 172:1 173:1 174:1 175:0 176:0 177:1 178:1 179:1 180:1 181:1 182:1 183:1 184:1 185:0 186:0 187:1 188:1 189:1 190:1 191:1 192:1 193:1 194:1 195:0 196:0 197:1 198:1 199:1 200:1 201:1 202:1 203:1 204:1 205:0 206:0 207:1 208:1 209:1 210:1 211:1 212:1 213:1 214:1 215:0 216:0 217:1 218:1 219:1 220:1 221:1 222:1 223:1 224:1 225:0 226:0 227:1 228:1 229:1 230:1 231:1 232:1 233:1 234:1 235:0 236:0 237:1 238:1 239:1 240:1 241:1 242:1 243:1 244:1 245:0 246:0 247:1 248:1 249:1 250:1 251:1 252:1 253:1 254:1 255:0 256:0 257:1 258:1 259:1 260:1 261:1 262:1 263:1 264:1 265:0 266:0 267:1 268:1 269:1 270:1 271:1 272:1 273:1 274:0 275:0 276:0 277:1 278:1 279:1 280:1 281:1 282:1 283:1 284:1 285:1 286:0 287:1 288:1 289:1 290:1 291:1 292:1 293:1 294:0 295:0 296:1 297:1 298:1 299:1 300:1 301:1 302:1 303:1 304:1 305:1 306:0 307:0 308:1 309:1 310:1 311:1 312:1 313:1 314:0 315:0 316:1 317:1 318:1 319:1 320:1 321:1 322:1 323:1 324:1 325:1 326:0 327:0 328:0 329:1 330:1 331:1 332:0 333:0 334:0 335:1 336:1 337:1 338:1 339:1 340:1 341:1 342:1 343:1 344:1 345:1 346:1 347:0 348:0 349:0 350:0 351:0 352:0 353:0 354:1 355:1 356:1 357:1 358:1 359:1 360:1 361:1 362:1 363:1 364:1 365:1 366:1 367:1 368:1 369:0 370:0 371:0 372:0 373:1 374:1 375:1 376:1 377:1 378:1 379:1 380:1 381:1 382:1 383:1 384:1 385:1 386:1 387:1 388:1 389:1 390:1 391:1 392:1 393:1 394:1 395:1 396:1 397:1 398:1 399:1 
0 0 0 0 0 0 0 0 0.9479286817711978 0:1 1:1 2:1 3:1 4:1 5:1 6:1 7:1 8:1 9:1 10:1 11:1 12:1 13:1 14:1 15:1 16:1 17:1 18:1 19:1 20:1 21:1 22:1 23:1 24:1 25:1 26:1 27:1 28:1 29:1 30:1 31:1 32:1 33:1 34:1 35:1 36:1 37:1 38:1 39:1 40:1 41:1 42:1 43:1 44:1 45:1 46:1 47:1 48:1 49:0 50:0 51:0 52:1 53:1 54:1 55:1 56:1 57:1 58:1 59:1 60:1 61:1 62:1 63:1 64:1 65:1 66:1 67:1 68:0 69:0 70:0 71:0 72:0 73:0 74:1 75:1 76:1 77:1 78:1 79:1 80:1 81:1 82:1 83:1 84:1 85:1 86:1 87:0 88:0 89:0 90:0 91:0 92:0 93:0 94:0 95:1 96:1 97:1 98:1 99:1 100:1 101:1 102:1 103:1 104:1 105:1 106:0 107:0 108:0 109:1 110:1 111:1 112:1 113:0 114:0 115:0 116:1 117:1 118:1 119:1 120:1 121:1 122:1 123:1 124:1 125:0 126:0 127:0 128:1 129:1 130:1 131:1 132:1 133:1 134:0 135:0 136:0 137:1 138:1 139:1 140:1 141:1 142:1 143:1 144:1 145:0 146:0 147:1 148:1 149:1 150:1 151:1 152:1 153:1 154:0 155:0 156:0 157:1 158:1 159:1 160:1 161:1 162:1 163:1 164:1 165:0 166:0 167:1 168:1 169:1 170:1 171:1 172:1 173:1 174:0 175:0 176:0 177:1 178:1 179:1 180:1 181:1 182:1 183:1 184:0 185:0 186:0 187:1 188:1 189:1 190:1 191:1 192:1 193:1 194:1 195:0 196:0 197:1 198:1 199:1 200:1 201:1 202:1 203:1 204:0 205:0 206:1 207:1 208:1 209:1 210:1 211:1 212:1 213:1 214:0 215:0 216:0 217:1 218:1 219:1 220:1 221:1 222:1 223:1 224:0 225:0 226:1 227:1 228:1 229:1 230:1 231:1 232:1 233:1 234:0 235:0 236:1 237:1 238:1 239:1 240:1 241:1 242:1 243:1 244:0 245:0 246:1 247:1 248:1 249:1 250:1 251:1 252:1 253:1 254:0 255:0 256:1 257:1 258:1 259:1 260:1 261:1 262:1 263:1 264:0 265:0 266:1 267:1 268:1 269:1 270:1 271:1 272:1 273:1 274:0 275:0 276:1 277:1 278:1 279:1 280:1 281:1 282:1 283:1 284:0 285:0 286:0 287:1 288:1 289:1 290:1 291:1 292:1 293:0 294:0 295:0 296:1 297:1 298:1 299:1 300:1 301:1 302:1 303:1 304:1 305:0 306:0 307:1 308:1 309:1 310:1 311:1 312:1 313:0 314:0 315:1 316:1 317:1 318:1 319:1 320:1 321:1 322:1 323:1 324:1 325:0 326:0 327:0 328:1 329:1 330:1 331:1 332:0 333:0 334:0 335:1 336:1 337:1 338:1 339:1 340:1 341:1 342:1 343:1 344:1 345:1 346:0 347:0 348:0 349:0 350:0 351:0 352:0 353:0 354:1 355:1 356:1 357:1 358:1 359:1 360:1 361:1 362:1 363:1 364:1 365:1 366:0 367:0 368:0 369:0 370:0 371:0 372:0 373:1 374:1 375:1 376:1 377:1 378:1 379:1 380:1 381:1 382:1 383:1 384:1 385:1 386:1 387:1 388:1 389:1 390:0 391:1 392:1 393:1 394:1 395:1 396:1 397:1 398:1 399:1 
0 1.165321820510618 0.3087321844640574 0 0 0.6589486730039672 0 0 0 0:1 1:1 2:1 3:1 4:1 5:1 6:1 7:1 8:1 9:1 10:1 11:1 12:1 13:1 14:1 15:1 16:1 17:1 18:1 19:1 20:1 21:1 22:1 23:1 24:1 25:1 26:1 27:1 28:1 29:1 30:1 31:1 32:1 33:1 34:1 35:1 36:1 37:1 38:1 39:1 40:1 41:1 42:1 43:1 44:1 45:1 46:1 47:1 48:1 49:1 50:1 51:1 52:1 53:1 54:1 55:1 56:1 57:1 58:1 59:1 60:1 61:1 62:1 63:1 64:1 65:1 66:1 67:1 68:1 69:1 70:1 71:1 72:1 73:1 74:1 75:1 76:1 77:1 78:1 79:1 80:1 81:1 82:1 83:1 84:1 85:1 86:1 87:1 88:1 89:1 90:0 91:0 92:0 93:1 94:1 95:1 96:1 97:1 98:1 99:1 100:1 101:1 102:1 103:1 104:1 105:1 106:1 107:1 108:0 109:0 110:0 111:0 112:0 113:0 114:0 115:1 116:1 117:1 118:1 119:1 120:1 121:1 122:1 123:1 124:1 125:1 126:1 127:0 128:0 129:1 130:1 131:1 132:1 133:1 134:0 135:0 136:1 137:1 138:1 139:1 140:1 141:1 142:1 143:1 144:1 145:1 146:0 147:0 148:0 149:1 150:1 151:1 152:1 153:1 154:1 155:0 156:1 157:1 158:1 159:1 160:1 161:1 162:1 163:1 164:1 165:1 166:0 167:0 168:1 169:1 170:1 171:1 172:1 173:1 174:1 175:0 176:0 177:1 178:1 179:1 180:1 181:1 182:1 183:1 184:1 185:1 186:0 187:1 188:1 189:1 190:1 191:1 192:1 193:1 194:1 195:0 196:0 197:1 198:1 199:1 200:1 201:1 202:1 203:1 204:1 205:0 206:0 207:1 208:1 209:1 210:1 211:1 212:1 213:1 214:1 215:0 216:0 217:1 218:1 219:1 220:1 221:1 222:1 223:1 224:1 225:0 226:0 227:1 228:1 229:1 230:1 231:1 232:1 233:1 234:0 235:0 236:1 237:1 238:1 239:1 240:1 241:1 242:1 243:1 244:1 245:0 246:0 247:1 248:1 249:1 250:1 251:1 252:1 253:1 254:0 255:0 256:1 257:1 258:1 259:1 260:1 261:1 262:1 263:1 264:1 265:0 266:0 267:1 268:1 269:1 270:1 271:1 272:1 273:0 274:0 275:1 276:1 277:1 278:1 279:1 280:1 281:1 282:1 283:1 284:1 285:0 286:0 287:1 288:1 289:1 290:1 291:1 292:1 293:0 294:0 295:1 296:1 297:1 298:1 299:1 300:1 301:1 302:1 303:1 304:1 305:1 306:0 307:0 308:0 309:1 310:0 311:0 312:0 313:0 314:1 315:1 316:1 317:1 318:1 319:1 320:1 321:1 322:1 323:1 324:1 325:1 326:1 327:0 328:0 329:0 330:0 331:0 332:0 333:1 334:1 335:1 336:1 337:1 338:1 339:1 340:1 341:1 342:1 343:1 344:1 345:1 346:1 347:1 348:1 349:1 350:1 351:1 352:1 353:1 354:1 355:1 356:1 357:1 358:1 359:1 360:1 361:1 362:1 363:1 364:1 365:1 366:1 367:1 368:1 369:1 370:1 371:1 372:1 373:1 374:1 375:1 376:1 377:1 378:1 379:1 380:1 381:1 382:1 383:1 384:1 385:1 386:1 387:1 388:1 389:1 390:1 391:1 392:1 393:1 394:1 395:1 396:1 397:1 398:1 399:1 
0 0 0 0 0 0 0 1.176991041691361 0 0:1 1:1 2:1 3:1 4:1 5:1 6:1 7:1 8:1 9:1 10:1 11:1 12:1 13:1 14:1 15:1 16:1 17:1 18:1 19:1 20:1 21:1 22:1 23:1 24:1 25:1 26:1 27:1 28:1 29:1 30:1 31:1 32:1 33:1 34:1 35:1 36:1 37:1 38:1 39:1 40:1 41:1 42:1 43:1 44:1 45:1 46:1 47:1 48:0 49:0 50:0 51:0 52:0 53:0 54:1 55:1 56:1 57:1 58:1 59:1 60:1 61:1 62:1 63:1 64:1 65:1 66:1 67:0 68:0 69:0 70:0 71:0 72:0 73:0 74:0 75:1 76:1 77:1 78:1 79:1 80:1 81:1 82:1 83:1 84:1 85:1 86:0 87:0 88:0 89:1 90:1 91:1 92:1 93:0 94:0 95:0 96:1 97:1 98:1 99:1 100:1 101:1 102:1 103:1 104:1 105:1 106:0 107:0 108:1 109:1 110:1 111:1 112:1 113:1 114:0 115:0 116:0 117:1 118:1 119:1 120:1 121:1 122:1 123:1 124:1 125:0 126:0 127:0 128:1 129:1 130:1 131:1 132:1 133:1 134:0 135:0 136:0 137:1 138:1 139:1 140:1 141:1 142:1 143:1 144:1 145:0 146:0 147:1 148:1 149:1 150:1 151:1 152:1 153:1 154:1 155:0 156:0 157:1 158:1 159:1 160:1 161:1 162:1 163:1 164:0 165:0 166:0 167:1 168:1 169:1 170:1 171:1 172:1 173:1 174:1 175:0 176:0 177:1 178:1 179:1 180:1 181:1 182:1 183:1 184:0 185:0 186:1 187:1 188:1 189:1 190:1 191:1 192:1 193:1 194:0 195:0 196:0 197:1 198:1 199:1 200:1 201:1 202:1 203:1 204:0 205:0 206:1 207:1 208:1 209:1 210:1 211:1 212:1 213:1 214:0 215:0 216:1 217:1 218:1 219:1 220:1 221:1 222:1 223:1 224:0 225:0 226:1 227:1 228:1 229:1 230:1 231:1 232:1 233:1 234:0 235:0 236:1 237:1 238:1 239:1 240:1 241:1 242:1 243:1 244:0 245:0 246:1 247:1 248:1 249:1 250:1 251:1 252:1 253:0 254:0 255:0 256:1 257:1 258:1 259:1 260:1 261:1 262:1 263:1 264:0 265:0 266:1 267:1 268:1 269:1 270:1 271:1 272:1 273:0 274:0 275:1 276:1 277:1 278:1 279:1 280:1 281:1 282:1 283:1 284:0 285:0 286:0 287:1 288:1 289:1 290:1 291:1 292:0 293:0 294:0 295:1 296:1 297:1 298:1 299:1 300:1 301:1 302:1 303:1 304:0 305:0 306:0 307:1 308:1 309:1 310:1 311:0 312:0 313:0 314:1 315:1 316:1 317:1 318:1 319:1 320:1 321:1 322:1 323:1 324:1 325:0 326:0 327:0 328:0 329:0 330:0 331:0 332:0 333:0 334:1 335:1 336:1 337:1 338:1 339:1 340:1 341:1 342:1 343:1 344:1 345:1 346:0 347:0 348:0 349:0 350:0 351:0 352:1 353:1 354:1 355:1 356:1 357:1 358:1 359:1 360:1 361:1 362:1 363:1 364:1 365:1 366:1 367:1 368:0 369:0 370:0 371:1 372:1 373:1 374:1 375:1 376:1 377:1 378:1 379:1 380:1 381:1 382:1 383:1 384:1 385:1 386:1 387:1 388:1 389:1 390:1 391:1 392:1 393:1 394:1 395:1 396:1 397:1 398:1 399:1 
0 0 0 0 0 0 0 0 1.210394710802017 0:1 1:1 2:1 3:1 4:1 5:1 6:1 7:1 8:1 9:1 10:1 11:1 12:1 13:1 14:1 15:1 16:1 17:1 18:1 19:1 20:1 21:1 22:1 23:1 24:1 25:1 26:1 27:1 28:1 29:1 30:1 31:1 32:1 33:1 34:1 35:1 36:1 37:1 38:1 39:1 40:1 41:1 42:1 43:1 44:1 45:1 46:1 47:1 48:1 49:1 50:1 51:1 52:1 53:1 54:1 55:1 56:1 57:1 58:1 59:1 60:1 61:1 62:1 63:1 64:1 65:1 66:1 67:0 68:0 69:0 70:0 71:0 72:0 73:1 74:1 75:1 76:1 77:1 78:1 79:1 80:1 81:1 82:1 83:1 84:1 85:1 86:0 87:0 88:0 89:0 90:0 91:0 92:0 93:0 94:1 95:1 96:1 97:1 98:1 99:1 100:1 101:1 102:1 103:1 104:1 105:0 106:0 107:0 108:1 109:1 110:0 111:0 112:0 113:0 114:1 115:1 116:1 117:1 118:1 119:1 120:1 121:1 122:1 123:1 124:0 125:0 126:0 127:1 128:0 129:0 130:0 131:1 132:0 133:0 134:0 135:1 136:1 137:1 138:1 139:1 140:1 141:1 142:1 143:1 144:0 145:0 146:0 147:1 148:0 149:1 150:1 151:1 152:1 153:0 154:0 155:0 156:1 157:1 158:1 159:1 160:1 161:1 162:1 163:1 164:0 165:0 166:1 167:1 168:1 169:1 170:1 171:1 172:1 173:0 174:0 175:0 176:1 177:1 178:1 179:1 180:1 181:1 182:1 183:1 184:0 185:0 186:1 187:0 188:1 189:1 190:1 191:1 192:1 193:0 194:0 195:0 196:1 197:1 198:1 199:1 200:1 201:1 202:1 203:1 204:0 205:0 206:0 207:0 208:1 209:1 210:1 211:1 212:1 213:0 214:0 215:0 216:0 217:1 218:1 219:1 220:1 221:1 222:1 223:1 224:0 225:0 226:0 227:1 228:1 229:1 230:1 231:1 232:0 233:0 234:0 235:0 236:0 237:1 238:1 239:1 240:1 241:1 242:1 243:1 244:0 245:0 246:0 247:1 248:1 249:1 250:1 251:1 252:0 253:0 254:1 255:0 256:1 257:1 258:1 259:1 260:1 261:1 262:1 263:1 264:0 265:0 266:0 267:1 268:1 269:1 270:1 271:0 272:0 273:0 274:1 275:0 276:1 277:1 278:1 279:1 280:1 281:1 282:1 283:1 284:1 285:0 286:0 287:0 288:1 289:1 290:0 291:0 292:0 293:1 294:1 295:0 296:1 297:1 298:1 299:1 300:1 301:1 302:1 303:1 304:1 305:0 306:0 307:0 308:0 309:0 310:0 311:0 312:1 313:1 314:1 315:1 316:1 317:1 318:1 319:1 320:1 321:1 322:1 323:1 324:1 325:1 326:1 327:0 328:0 329:0 330:0 331:0 332:1 333:0 334:1 335:1 336:1 337:1 338:1 339:1 340:1 341:1 342:1 343:1 344:1 345:1 346:1 347:1 348:0 349:0 350:0 351:0 352:0 353:0 354:1 355:1 356:1 357:1 358:1 359:1 360:1 361:1 362:1 363:1 364:1 365:1 366:1 367:1 368:1 369:1 370:1 371:1 372:1 373:1 374:1 375:1 376:1 377:1 378:1 379:1 380:1 381:1 382:1 383:1 384:1 385:1 386:1 387:1 388:1 389:1 390:1 391:1 392:1 393:1 394:1 395:1 396:1 397:1 398:1 399:1 
0.3723381504216784 1.109895637109239 2.279009042586404 0 3.264572880644453 0 0.6529497852817173 1.523588381222473 6.495915298338398 0:1 1:1 2:1 3:1 4:1 5:1 6:1 7:1 8:1 9:1 10:1 11:1 12:1 13:1 14:1 15:1 16:1 17:1 18:1 19:1 20:1 21:1 22:1 23:1 24:1 25:1 26:1 27:1 28:1 29:1 30:1 31:1 32:1 33:1 34:1 35:1 36:1 37:1 38:1 39:1 40:1 41:1 42:1 43:1 44:1 45:1 46:1 47:1 48:1 49:1 50:1 51:1 52:1 53:1 54:1 55:1 56:1 57:1 58:1 59:1 60:1 61:1 62:1 63:1 64:1 65:1 66:1 67:1 68:1 69:0 70:0 71:0 72:0 73:0 74:1 75:1 76:1 77:1 78:1 79:1 80:1 81:1 82:1 83:1 84:1 85:1 86:1 87:1 88:0 89:0 90:0 91:0 92:0 93:0 94:0 95:1 96:1 97:1 98:1 99:1 100:1 101:1 102:1 103:1 104:1 105:1 106:1 107:0 108:0 109:0 110:1 111:1 112:1 113:1 114:0 115:0 116:1 117:1 118:1 119:1 120:1 121:1 122:1 123:1 124:1 125:1 126:0 127:0 128:1 129:1 130:1 131:1 132:1 133:1 134:0 135:0 136:1 137:1 138:1 139:1 140:1 141:1 142:1 143:1 144:1 145:0 146:0 147:0 148:1 149:1 150:1 151:1 152:1 153:1 154:1 155:0 156:1 157:1 158:1 159:1 160:1 161:1 162:1 163:1 164:1 165:0 166:0 167:1 168:1 169:1 170:1 171:1 172:1 173:1 174:1 175:0 176:0 177:1 178:1 179:1 180:1 181:1 182:1 183:1 184:1 185:0 186:0 187:1 188:1 189:1 190:1 191:1 192:1 193:1 194:0 195:0 196:1 197:1 198:1 199:1 200:1 201:1 202:1 203:1 204:0 205:0 206:1 207:1 208:1 209:1 210:1 211:1 212:1 213:1 214:0 215:0 216:1 217:1 218:1 219:1 220:1 221:1 222:1 223:1 224:0 225:0 226:1 227:1 228:1 229:1 230:1 231:1 232:1 233:0 234:0 235:1 236:1 237:1 238:1 239:1 240:1 241:1 242:1 243:1 244:0 245:0 246:1 247:1 248:1 249:1 250:1 251:1 252:1 253:0 254:0 255:1 256:1 257:1 258:1 259:1 260:1 261:1 262:1 263:1 264:0 265:0 266:1 267:1 268:1 269:1 270:1 271:1 272:0 273:0 274:0 275:1 276:1 277:1 278:1 279:1 280:1 281:1 282:1 283:1 284:0 285:0 286:1 287:1 288:1 289:1 290:1 291:1 292:0 293:0 294:1 295:1 296:1 297:1 298:1 299:1 300:1 301:1 302:1 303:1 304:0 305:0 306:0 307:1 308:1 309:1 310:0 311:0 312:0 313:0 314:1 315:1 316:1 317:1 318:1 319:1 320:1 321:1 322:1 323:1 324:1 325:0 326:0 327:0 328:0 329:0 330:0 331:0 332:1 333:1 334:1 335:1 336:1 337:1 338:1 339:1 340:1 341:1 342:1 343:1 344:1 345:1 346:1 347:0 348:0 349:0 350:0 351:1 352:1 353:1 354:1 355:1 356:1 357:1 358:1 359:1 360:1 361:1 362:1 363:1 364:1 365:1 366:1 367:1 368:1 369:1 370:1 371:1 372:1 373:1 374:1 375:1 376:1 377:1 378:1 379:1 380:1 381:1 382:1 383:1 384:1 385:1 386:1 387:1 388:1 389:1 390:1 391:1 392:1 393:1 394:1 395:1 396:1 397:1 398:1 399:1 
0.1808895087659957 0 0.7576276530739438 0.3131159801742814 0 0 1.099221235619909 0 2.317468041885425 0:1 1:1 2:1 3:1 4:1 5:1 6:1 7:1 8:1 9:1 10:1 11:1 12:1 13:1 14:1 15:1 16:1 17:1 18:1 19:1 20:1 21:1 22:1 23:1 24:1 25:1 26:1 27:1 28:1 29:1 30:1 31:1 32:1 33:1 34:1 35:1 36:1 37:1 38:1 39:1 40:1 41:1 42:1 43:1 44:1 45:1 46:1 47:1 48:0 49:0 50:0 51:0 52:0 53:1 54:1 55:1 56:1 57:1 58:1 59:1 60:1 61:1 62:1 63:1 64:1 65:1 66:0 67:0 68:0 69:0 70:0 71:0 72:0 73:0 74:1 75:1 76:1 77:1 78:1 79:1 80:1 81:1 82:1 83:1 84:1 85:1 86:0 87:0 88:0 89:1 90:1 91:1 92:0 93:0 94:0 95:1 96:1 97:1 98:1 99:1 100:1 101:1 102:1 103:1 104:1 105:0 106:0 107:0 108:1 109:1 110:1 111:1 112:1 113:0 114:0 115:0 116:1 117:1 118:1 119:1 120:1 121:1 122:1 123:1 124:1 125:0 126:0 127:1 128:1 129:1 130:1 131:1 132:1 133:1 134:0 135:0 136:1 137:1 138:1 139:1 140:1 141:1 142:1 143:1 144:0 145:0 146:0 147:1 148:1 149:1 150:1 151:1 152:1 153:1 154:0 155:0 156:1 157:1 158:1 159:1 160:1 161:1 162:1 163:1 164:0 165:0 166:1 167:1 168:1 169:1 170:1 171:1 172:1 173:1 174:0 175:0 176:0 177:1 178:1 179:1 180:1 181:1 182:1 183:1 184:0 185:0 186:1 187:1 188:1 189:1 190:1 191:1 192:1 193:1 194:0 195:0 196:1 197:1 198:1 199:1 200:1 201:1 202:1 203:1 204:0 205:0 206:1 207:1 208:1 209:1 210:1 211:1 212:1 213:1 214:0 215:0 216:1 217:1 218:1 219:1 220:1 221:1 222:1 223:1 224:0 225:0 226:1 227:1 228:1 229:1 230:1 231:1 232:1 233:1 234:0 235:0 236:1 237:1 238:1 239:1 240:1 241:1 242:1 243:1 244:0 245:0 246:1 247:1 248:1 249:1 250:1 251:1 252:1 253:1 254:0 255:0 256:1 257:1 258:1 259:1 260:1 261:1 262:1 263:1 264:0 265:0 266:1 267:1 268:1 269:1 270:1 271:1 272:1 273:0 274:0 275:1 276:1 277:1 278:1 279:1 280:1 281:1 282:1 283:1 284:0 285:0 286:0 287:1 288:1 289:1 290:1 291:1 292:1 293:0 294:0 295:1 296:1 297:1 298:1 299:1 300:1 301:1 302:1 303:1 304:1 305:0 306:0 307:1 308:1 309:1 310:1 311:1 312:0 313:0 314:0 315:1 316:1 317:1 318:1 319:1 320:1 321:1 322:1 323:1 324:1 325:0 326:0 327:0 328:1 329:1 330:1 331:0 332:0 333:0 334:1 335:1 336:1 337:1 338:1 339:1 340:1 341:1 342:1 343:1 344:1 345:1 346:0 347:0 348:0 349:0 350:0 351:0 352:0 353:1 354:1 355:1 356:1 357:1 358:1 359:1 360:1 361:1 362:1 363:1 364:1 365:1 366:1 367:0 368:0 369:0 370:0 371:0 372:1 373:1 374:1 375:1 376:1 377:1 378:1 379:1 380:1 381:1 382:1 383:1 384:1 385:1 386:1 387:1 388:1 389:1 390:1 391:1 392:1 393:1 394:1 395:1 396:1 397:1 398:1 399:1 
0.1275026515240747 0.6860373006068019 1.181081085060878 0.06567171618000704 0.9407074069806073 0 1.616650814628207 0.07869466463701591 1.560975004821683 0:1 1:1 2:1 3:1 4:1 5:1 6:1 7:1 8:1 9:1 10:1 11:1 12:1 13:1 14:1 15:1 16:1 17:1 18:1 19:1 20:1 21:1 22:1 23:1 24:1 25:1 26:1 27:1 28:1 29:1 30:1 31:1 32:1 33:1 34:1 35:1 36:1 37:1 38:1 39:1 40:1 41:1 42:1 43:1 44:1 45:1 46:1 47:1 48:1 49:1 50:0 51:0 52:0 53:0 54:1 55:1 56:1 57:1 58:1 59:1 60:1 61:1 62:1 63:1 64:1 65:1 66:1 67:1 68:0 69:0 70:0 71:0 72:0 73:0 74:0 75:0 76:1 77:1 78:1 79:1 80:1 81:1 82:1 83:1 84:1 85:1 86:1 87:0 88:0 89:0 90:0 91:1 92:1 93:0 94:0 95:0 96:0 97:1 98:1 99:1 100:1 101:1 102:1 103:1 104:1 105:1 106:0 107:0 108:0 109:1 110:1 111:1 112:1 113:1 114:0 115:0 116:0 117:1 118:1 119:1 120:1 121:1 122:1 123:1 124:1 125:0 126:0 127:0 128:1 129:1 130:1 131:1 132:1 133:1 134:1 135:0 136:0 137:0 138:1 139:1 140:1 141:1 142:1 143:1 144:1 145:0 146:0 147:1 148:1 149:1 150:1 151:1 152:1 153:1 154:1 155:0 156:0 157:0 158:1 159:1 160:1 161:1 162:1 163:1 164:0 165:0 166:0 167:1 168:1 169:1 170:1 171:1 172:1 173:1 174:1 175:0 176:0 177:0 178:1 179:1 180:1 181:1 182:1 183:1 184:0 185:0 186:1 187:1 188:1 189:1 190:1 191:1 192:1 193:1 194:1 195:0 196:0 197:1 198:1 199:1 200:1 201:1 202:1 203:1 204:0 205:0 206:1 207:1 208:1 209:1 210:1 211:1 212:1 213:1 214:1 215:0 216:0 217:1 218:1 219:1 220:1 221:1 222:1 223:0 224:0 225:0 226:1 227:1 228:1 229:1 230:1 231:1 232:1 233:1 234:0 235:0 236:0 237:1 238:1 239:1 240:1 241:1 242:1 243:0 244:0 245:1 246:1 247:1 248:1 249:1 250:1 251:1 252:1 253:0 254:0 255:0 256:1 257:1 258:1 259:1 260:1 261:1 262:1 263:0 264:0 265:0 266:1 267:1 268:1 269:1 270:1 271:1 272:1 273:0 274:0 275:1 276:1 277:1 278:1 279:1 280:1 281:1 282:1 283:0 284:0 285:0 286:1 287:1 288:1 289:1 290:1 291:1 292:0 293:0 294:0 295:1 296:1 297:1 298:1 299:1 300:1 301:1 302:1 303:1 304:0 305:0 306:0 307:1 308:1 309:1 310:1 311:0 312:0 313:0 314:1 315:1 316:1 317:1 318:1 319:1 320:1 321:1 322:1 323:1 324:1 325:0 326:0 327:0 328:0 329:0 330:0 331:0 332:0 333:1 334:1 335:1 336:1 337:1 338:1 339:1 340:1 341:1 342:1 343:1 344:1 345:1 346:0 347:0 348:0 349:0 350:0 351:1 352:1 353:1 354:1 355:1 356:1 357:1 358:1 359:1 360:1 361:1 362:1 363:1 364:1 365:1 366:1 367:1 368:0 369:0 370:1 371:1 372:1 373:1 374:1 375:1 376:1 377:1 378:1 379:1 380:1 381:1 382:1 383:1 384:1 385:1 386:1 387:1 388:1 389:1 390:1 391:1 392:1 393:1 394:1 395:1 396:1 397:1 398:1 399:1 
0 0 0 2.59182536052612 6.57428994901236 3.764644217647494 0 4.460934275670224 1.216600410711387 0:1 1:1 2:1 3:1 4:1 5:1 6:1 7:1 8:1 9:1 10:1 11:1 12:1 13:1 14:1 15:1 16:1 17:1 18:1 19:1 20:1 21:1 22:1 23:1 24:1 25:1 26:1 27:1 28:1 29:1 30:1 31:1 32:1 33:1 34:1 35:1 36:1 37:1 38:1 39:1 40:1 41:1 42:1 43:1 44:1 45:1 46:1 47:1 48:1 49:1 50:1 51:1 52:1 53:1 54:1 55:1 56:1 57:1 58:1 59:1 60:1 61:1 62:1 63:1 64:1 65:1 66:1 67:0 68:0 69:0 70:0 71:1 72:1 73:1 74:1 75:1 76:1 77:1 78:1 79:1 80:1 81:1 82:1 83:1 84:1 85:1 86:0 87:0 88:0 89:0 90:0 91:0 92:1 93:1 94:1 95:1 96:1 97:1 98:1 99:1 100:1 101:1 102:1 103:1 104:1 105:0 106:0 107:0 108:1 109:0 110:0 111:0 112:0 113:1 114:1 115:1 116:1 117:1 118:1 119:1 120:1 121:1 122:1 123:1 124:1 125:0 126:0 127:1 128:0 129:0 130:0 131:0 132:0 133:0 134:1 135:1 136:1 137:1 138:1 139:1 140:1 141:1 142:1 143:1 144:1 145:0 146:0 147:1 148:0 149:0 150:1 151:0 152:0 153:0 154:0 155:1 156:1 157:1 158:1 159:1 160:1 161:1 162:1 163:1 164:1 165:0 166:0 167:0 168:0 169:1 170:1 171:1 172:0 173:0 174:0 175:1 176:1 177:1 178:1 179:1 180:1 181:1 182:1 183:1 184:1 185:0 186:0 187:0 188:0 189:1 190:1 191:1 192:0 193:0 194:0 195:1 196:1 197:1 198:1 199:1 200:1 201:1 202:1 203:1 204:1 205:0 206:0 207:0 208:0 209:1 210:1 211:1 212:0 213:0 214:0 215:0 216:1 217:1 218:1 219:1 220:1 221:1 222:1 223:1 224:1 225:0 226:0 227:0 228:0 229:1 230:1 231:1 232:0 233:0 234:0 235:0 236:1 237:1 238:1 239:1 240:1 241:1 242:1 243:1 244:1 245:1 246:0 247:0 248:0 249:1 250:1 251:1 252:0 253:0 254:0 255:0 256:1 257:1 258:1 259:1 260:1 261:1 262:1 263:1 264:1 265:1 266:0 267:0 268:0 269:0 270:1 271:0 272:0 273:0 274:0 275:0 276:1 277:1 278:1 279:1 280:1 281:1 282:1 283:1 284:1 285:1 286:1 287:0 288:0 289:0 290:0 291:0 292:0 293:1 294:0 295:0 296:1 297:1 298:1 299:1 300:1 301:1 302:1 303:1 304:1 305:1 306:1 307:1 308:0 309:0 310:0 311:0 312:1 313:1 314:0 315:0 316:1 317:1 318:1 319:1 320:1 321:1 322:1 323:1 324:1 325:1 326:1 327:1 328:1 329:0 330:0 331:0 332:0 333:0 334:0 335:1 336:1 337:1 338:1 339:1 340:1 341:1 342:1 343:1 344:1 345:1 346:1 347:1 348:1 349:1 350:0 351:0 352:0 353:0 354:1 355:1 356:1 357:1 358:1 359:1 360:1 361:1 362:1 363:1 364:1 365:1 366:1 367:1 368:1 369:1 370:1 371:1 372:1 373:1 374:1 375:1 376:1 377:1 378:1 379:1 380:1 381:1 382:1 383:1 384:1 385:1 386:1 387:1 388:1 389:1 390:1 391:1 392:1 393:1 394:1 395:1 396:1 397:1 398:1 399:1 
0 0 0 2.961365556350562 0 0 0 0 1.86360875210187 0:1 1:1 2:1 3:1 4:1 5:1 6:1 7:1 8:1 9:1 10:1 11:1 12:1 13:1 14:1 15:1 16:1 17:1 18:1 19:1 20:1 21:1 22:1 23:1 24:1 25:1 26:1 27:1 28:1 29:1 30:1 31:1 32:1 33:1 34:1 35:1 36:1 37:1 38:1 39:1 40:1 41:1 42:1 43:1 44:1 45:1 46:1 47:1 48:1 49:1 50:1 51:1 52:1 53:1 54:1 55:1 56:1 57:1 58:1 59:1 60:1 61:1 62:1 63:1 64:1 65:1 66:1 67:1 68:1 69:1 70:1 71:1 72:1 73:1 74:1 75:1 76:1 77:1 78:1 79:1 80:1 81:1 82:1 83:1 84:1 85:1 86:1 87:1 88:1 89:1 90:0 91:0 92:0 93:0 94:1 95:1 96:1 97:1 98:1 99:1 100:1 101:1 102:1 103:1 104:1 105:1 106:1 107:1 108:1 109:0 110:0 111:0 112:0 113:0 114:0 115:1 116:1 117:1 118:1 119:1 120:1 121:1 122:1 123:1 124:1 125:1 126:1 127:1 128:0 129:0 130:0 131:1 132:1 133:0 134:0 135:0 136:1 137:1 138:1 139:1 140:1 141:1 142:1 143:1 144:1 145:1 146:1 147:0 148:0 149:0 150:1 151:1 152:1 153:1 154:0 155:0 156:1 157:1 158:1 159:1 160:1 161:1 162:1 163:1 164:1 165:1 166:1 167:0 168:0 169:1 170:1 171:1 172:1 173:1 174:0 175:0 176:1 177:1 178:1 179:1 180:1 181:1 182:1 183:1 184:1 185:1 186:0 187:0 188:0 189:1 190:1 191:1 192:1 193:1 194:0 195:0 196:1 197:1 198:1 199:1 200:1 201:1 202:1 203:1 204:1 205:1 206:0 207:0 208:1 209:1 210:1 211:1 212:1 213:1 214:0 215:0 216:1 217:1 218:1 219:1 220:1 221:1 222:1 223:1 224:1 225:1 226:0 227:0 228:1 229:1 230:1 231:1 232:1 233:0 234:0 235:1 236:1 237:1 238:1 239:1 240:1 241:1 242:1 243:1 244:1 245:1 246:0 247:0 248:1 249:1 250:1 251:1 252:1 253:0 254:0 255:1 256:1 257:1 258:1 259:1 260:1 261:1 262:1 263:1 264:1 265:1 266:0 267:0 268:1 269:1 270:1 271:1 272:0 273:0 274:1 275:1 276:1 277:1 278:1 279:1 280:1 281:1 282:1 283:1 284:1 285:1 286:0 287:0 288:0 289:0 290:0 291:0 292:0 293:1 294:1 295:1 296:1 297:1 298:1 299:1 300:1 301:1 302:1 303:1 304:1 305:1 306:1 307:0 308:0 309:0 310:0 311:0 312:1 313:1 314:1 315:1 316:1 317:1 318:1 319:1 320:1 321:1 322:1 323:1 324:1 325:1 326:1 327:1 328:1 329:0 330:0 331:1 332:1 333:1 334:1 335:1 336:1 337:1 338:1 339:1 340:1 341:1 342:1 343:1 344:1 345:1 346:1 347:1 348:1 349:1 350:1 351:1 352:1 353:1 354:1 355:1 356:1 357:1 358:1 359:1 360:1 361:1 362:1 363:1 364:1 365:1 366:1 367:1 368:1 369:1 370:1 371:1 372:1 373:1 374:1 375:1 376:1 377:1 378:1 379:1 380:1 381:1 382:1 383:1 384:1 385:1 386:1 387:1 388:1 389:1 390:1 391:1 392:1 393:1 394:1 395:1 396:1 397:1 398:1 399:1 
0.8701912845318121 1.819015553809219 0 2.486713244686513 4.758036223598623 3.034494714843935 0.5708879731957398 3.385593885582298 0 0:1 1:1 2:1 3:1 4:1 5:1 6:1 7:1 8:1 9:1 10:1 11:1 12:1 13:1 14:1 15:1 16:1 17:1 18:1 19:1 20:1 21:1 22:1 23:1 24:1 25:1 26:1 27:1 28:1 29:1 30:1 31:1 32:1 33:1 34:1 35:1 36:1 37:1 38:1 39:1 40:1 41:1 42:1 43:1 44:1 45:1 46:1 47:1 48:1 49:1 50:1 51:1 52:1 53:1 54:1 55:1 56:1 57:1 58:1 59:1 60:1 61:1 62:1 63:1 64:1 65:1 66:1 67:1 68:1 69:1 70:0 71:0 72:0 73:0 74:0 75:0 76:1 77:1 78:1 79:1 80:1 81:1 82:1 83:1 84:1 85:1 86:1 87:1 88:1 89:0 90:0 91:0 92:0 93:0 94:0 95:0 96:0 97:1 98:1 99:1 100:1 101:1 102:1 103:1 104:1 105:1 106:1 107:0 108:0 109:0 110:0 111:1 112:1 113:1 114:1 115:0 116:0 117:0 118:1 119:1 120:1 121:1 122:1 123:1 124:1 125:1 126:1 127:0 128:0 129:1 130:1 131:1 132:1 133:1 134:1 135:1 136:0 137:0 138:1 139:1 140:1 141:1 142:1 143:1 144:1 145:1 146:0 147:0 148:0 149:1 150:1 151:1 152:1 153:1 154:1 155:1 156:0 157:0 158:1 159:1 160:1 161:1 162:1 163:1 164:1 165:1 166:0 167:0 168:1 169:1 170:1 171:1 172:1 173:1 174:1 175:1 176:0 177:0 178:1 179:1 180:1 181:1 182:1 183:1 184:1 185:0 186:0 187:0 188:1 189:1 190:1 191:1 192:1 193:1 194:1 195:1 196:0 197:0 198:1 199:1 200:1 201:1 202:1 203:1 204:1 205:0 206:0 207:1 208:1 209:1 210:1 211:1 212:1 213:1 214:1 215:1 216:0 217:0 218:1 219:1 220:1 221:1 222:1 223:1 224:1 225:0 226:0 227:1 228:1 229:1 230:1 231:1 232:1 233:1 234:1 235:0 236:0 237:0 238:1 239:1 240:1 241:1 242:1 243:1 244:0 245:0 246:1 247:1 248:1 249:1 250:1 251:1 252:1 253:1 254:1 255:0 256:0 257:1 258:1 259:1 260:1 261:1 262:1 263:1 264:0 265:0 266:1 267:1 268:1 269:1 270:1 271:1 272:1 273:1 274:0 275:0 276:1 277:1 278:1 279:1 280:1 281:1 282:1 283:1 284:0 285:0 286:0 287:1 288:1 289:1 290:1 291:1 292:1 293:1 294:0 295:0 296:1 297:1 298:1 299:1 300:1 301:1 302:1 303:1 304:0 305:0 306:0 307:1 308:1 309:1 310:1 311:1 312:0 313:0 314:0 315:1 316:1 317:1 318:1 319:1 320:1 321:1 322:1 323:1 324:1 325:0 326:0 327:0 328:1 329:1 330:1 331:0 332:0 333:0 334:1 335:1 336:1 337:1 338:1 339:1 340:1 341:1 342:1 343:1 344:1 345:1 346:0 347:0 348:0 349:0 350:0 351:0 352:0 353:1 354:1 355:1 356:1 357:1 358:1 359:1 360:1 361:1 362:1 363:1 364:1 365:1 366:1 367:0 368:0 369:0 370:0 371:0 372:1 373:1 374:1 375:1 376:1 377:1 378:1 379:1 380:1 381:1 382:1 383:1 384:1 385:1 386:1 387:1 388:1 389:1 390:1 391:1 392:1 393:1 394:1 395:1 396:1 397:1 398:1 399:1 
1.6095402731199 5.304822415489044 5.867797887520141 3.839460626209976 0 2.172324228376332 2.962828310436559 2.183184991450766 0.8914545262949372 0:1 1:1 2:1 3:1 4:1 5:1 6:1 7:1 8:1 9:1 10:1 11:1 12:1 13:1 14:1 15:1 16:1 17:1 18:1 19:1 20:1 21:1 22:1 23:1 24:1 25:1 26:1 27:1 28:1 29:1 30:1 31:1 32:1 33:1 34:1 35:1 36:1 37:1 38:1 39:1 40:1 41:1 42:1 43:1 44:1 45:1 46:1 47:1 48:1 49:1 50:1 51:1 52:1 53:1 54:1 55:1 56:1 57:1 58:1 59:1 60:1 61:1 62:1 63:1 64:1 65:1 66:1 67:1 68:1 69:1 70:1 71:1 72:1 73:1 74:1 75:1 76:1 77:1 78:1 79:1 80:1 81:1 82:1 83:1 84:1 85:1 86:1 87:1 88:0 89:0 90:0 91:0 92:1 93:1 94:1 95:1 96:1 97:1 98:1 99:1 100:1 101:1 102:1 103:1 104:1 105:1 106:0 107:0 108:0 109:0 110:0 111:0 112:0 113:1 114:1 115:1 116:1 117:1 118:1 119:1 120:1 121:1 122:1 123:1 124:1 125:1 126:0 127:0 128:1 129:1 130:0 131:0 132:0 133:1 134:1 135:1 136:1 137:1 138:1 139:1 140:1 141:1 142:1 143:1 144:1 145:0 146:0 147:0 148:1 149:1 150:1 151:0 152:0 153:0 154:1 155:1 156:1 157:1 158:1 159:1 160:1 161:1 162:1 163:1 164:1 165:0 166:0 167:1 168:1 169:1 170:1 171:1 172:0 173:0 174:1 175:1 176:1 177:1 178:1 179:1 180:1 181:1 182:1 183:1 184:1 185:0 186:0 187:1 188:1 189:1 190:1 191:1 192:0 193:0 194:0 195:1 196:1 197:1 198:1 199:1 200:1 201:1 202:1 203:1 204:1 205:0 206:0 207:0 208:1 209:1 210:1 211:1 212:0 213:0 214:0 215:1 216:1 217:1 218:1 219:1 220:1 221:1 222:1 223:1 224:1 225:0 226:0 227:0 228:1 229:1 230:1 231:1 232:0 233:0 234:0 235:0 236:1 237:1 238:1 239:1 240:1 241:1 242:1 243:1 244:1 245:1 246:0 247:0 248:0 249:1 250:1 251:1 252:0 253:0 254:0 255:1 256:1 257:1 258:1 259:1 260:1 261:1 262:1 263:1 264:1 265:1 266:0 267:0 268:0 269:1 270:1 271:0 272:0 273:0 274:1 275:1 276:1 277:1 278:1 279:1 280:1 281:1 282:1 283:1 284:1 285:1 286:1 287:0 288:0 289:0 290:0 291:0 292:0 293:0 294:1 295:1 296:1 297:1 298:1 299:1 300:1 301:1 302:1 303:1 304:1 305:1 306:1 307:1 308:0 309:0 310:0 311:0 312:1 313:1 314:1 315:1 316:1 317:1 318:1 319:1 320:1 321:1 322:1 323:1 324:1 325:1 326:1 327:1 328:1 329:1 330:1 331:0 332:1 333:1 334:1 335:1 336:1 337:1 338:1 339:1 340:1 341:1 342:1 343:1 344:1 345:1 346:1 347:1 348:1 349:1 350:1 351:1 352:1 353:1 354:1 355:1 356:1 357:1 358:1 359:1 360:1 361:1 362:1 363:1 364:1 365:1 366:1 367:1 368:1 369:1 370:1 371:1 372:1 373:1 374:1 375:1 376:1 377:1 378:1 379:1 380:1 381:1 382:1 383:1 384:1 385:1 386:1 387:1 388:1 389:1 390:1 391:1 392:1 393:1 394:1 395:1 396:1 397:1 398:1 399:1 
0 0 0 0 0 0.2095756253442102 0 0 0 0:1 1:1 2:1 3:1 4:1 5:1 6:1 7:1 8:1 9:1 10:1 11:1 12:1 13:1 14:1 15:1 16:1 17:1 18:1 19:1 20:1 21:1 22:1 23:1 24:1 25:1 26:1 27:1 28:1 29:1 30:1 31:1 32:1 33:1 34:1 35:1 36:1 37:1 38:1 39:1 40:1 41:1 42:1 43:1 44:1 45:1 46:1 47:1 48:1 49:1 50:1 51:1 52:1 53:1 54:1 55:1 56:1 57:1 58:1 59:1 60:1 61:1 62:1 63:1 64:1 65:1 66:1 67:1 68:1 69:1 70:1 71:0 72:1 73:1 74:1 75:1 76:1 77:1 78:1 79:1 80:1 81:1 82:1 83:1 84:1 85:1 86:1 87:1 88:0 89:0 90:0 91:0 92:0 93:0 94:1 95:1 96:1 97:1 98:1 99:1 100:1 101:1 102:1 103:1 104:1 105:1 106:1 107:0 108:0 109:0 110:1 111:0 112:0 113:0 114:1 115:1 116:1 117:1 118:1 119:1 120:1 121:1 122:1 123:1 124:1 125:1 126:0 127:0 128:1 129:1 130:1 131:1 132:1 133:0 134:0 135:1 136:1 137:1 138:1 139:1 140:1 141:1 142:1 143:1 144:1 145:1 146:0 147:0 148:1 149:1 150:1 151:1 152:1 153:1 154:0 155:0 156:1 157:1 158:1 159:1 160:1 161:1 162:1 163:1 164:1 165:1 166:0 167:1 168:1 169:1 170:1 171:1 172:1 173:1 174:0 175:0 176:1 177:1 178:1 179:1 180:1 181:1 182:1 183:1 184:1 185:0 186:0 187:1 188:1 189:1 190:1 191:1 192:1 193:1 194:0 195:0 196:1 197:1 198:1 199:1 200:1 201:1 202:1 203:1 204:1 205:0 206:0 207:1 208:1 209:1 210:1 211:1 212:1 213:1 214:0 215:0 216:1 217:1 218:1 219:1 220:1 221:1 222:1 223:1 224:1 225:0 226:0 227:1 228:1 229:1 230:1 231:1 232:1 233:1 234:0 235:0 236:1 237:1 238:1 239:1 240:1 241:1 242:1 243:1 244:1 245:0 246:0 247:1 248:1 249:1 250:1 251:1 252:1 253:1 254:0 255:0 256:1 257:1 258:1 259:1 260:1 261:1 262:1 263:1 264:1 265:1 266:0 267:0 268:1 269:1 270:1 271:1 272:1 273:1 274:0 275:0 276:1 277:1 278:1 279:1 280:1 281:1 282:1 283:1 284:1 285:1 286:0 287:0 288:1 289:1 290:1 291:1 292:1 293:1 294:0 295:0 296:1 297:1 298:1 299:1 300:1 301:1 302:1 303:1 304:1 305:1 306:0 307:0 308:1 309:1 310:1 311:1 312:1 313:1 314:0 315:0 316:1 317:1 318:1 319:1 320:1 321:1 322:1 323:1 324:1 325:1 326:1 327:0 328:0 329:1 330:1 331:1 332:1 333:0 334:0 335:1 336:1 337:1 338:1 339:1 340:1 341:1 342:1 343:1 344:1 345:1 346:1 347:0 348:0 349:0 350:0 351:0 352:0 353:0 354:0 355:1 356:1 357:1 358:1 359:1 360:1 361:1 362:1 363:1 364:1 365:1 366:1 367:1 368:0 369:0 370:0 371:0 372:0 373:0 374:1 375:1 376:1 377:1 378:1 379:1 380:1 381:1 382:1 383:1 384:1 385:1 386:1 387:1 388:1 389:1 390:1 391:1 392:1 393:1 394:1 395:1 396:1 397:1 398:1 399:1 
